{"learner":{"attributes":{"scikit_learn":"{\"_estimator_type\": \"regressor\"}"},"feature_names":["CB","Cp","CW","Speed_Length_Ratio","Froude_Number","LCB_Final","S_Wetted_Coeff"],"feature_types":["float","float","float","float","float","float","float"],"gradient_booster":{"model":{"cats":{"enc":[],"feature_segments":[],"sorted_idx":[]},"gbtree_model_param":{"num_parallel_tree":"1","num_trees":"290"},"iteration_indptr":[0,1,2,3,4,5,6,7,8,9,10,11,12,13,14,15,16,17,18,19,20,21,22,23,24,25,26,27,28,29,30,31,32,33,34,35,36,37,38,39,40,41,42,43,44,45,46,47,48,49,50,51,52,53,54,55,56,57,58,59,60,61,62,63,64,65,66,67,68,69,70,71,72,73,74,75,76,77,78,79,80,81,82,83,84,85,86,87,88,89,90,91,92,93,94,95,96,97,98,99,100,101,102,103,104,105,106,107,108,109,110,111,112,113,114,115,116,117,118,119,120,121,122,123,124,125,126,127,128,129,130,131,132,133,134,135,136,137,138,139,140,141,142,143,144,145,146,147,148,149,150,151,152,153,154,155,156,157,158,159,160,161,162,163,164,165,166,167,168,169,170,171,172,173,174,175,176,177,178,179,180,181,182,183,184,185,186,187,188,189,190,191,192,193,194,195,196,197,198,199,200,201,202,203,204,205,206,207,208,209,210,211,212,213,214,215,216,217,218,219,220,221,222,223,224,225,226,227,228,229,230,231,232,233,234,235,236,237,238,239,240,241,242,243,244,245,246,247,248,249,250,251,252,253,254,255,256,257,258,259,260,261,262,263,264,265,266,267,268,269,270,271,272,273,274,275,276,277,278,279,280,281,282,283,284,285,286,287,288,289,290],"tree_info":[0,0,0,0,0,0,0,0,0,0,0,0,0,0,0,0,0,0,0,0,0,0,0,0,0,0,0,0,0,0,0,0,0,0,0,0,0,0,0,0,0,0,0,0,0,0,0,0,0,0,0,0,0,0,0,0,0,0,0,0,0,0,0,0,0,0,0,0,0,0,0,0,0,0,0,0,0,0,0,0,0,0,0,0,0,0,0,0,0,0,0,0,0,0,0,0,0,0,0,0,0,0,0,0,0,0,0,0,0,0,0,0,0,0,0,0,0,0,0,0,0,0,0,0,0,0,0,0,0,0,0,0,0,0,0,0,0,0,0,0,0,0,0,0,0,0,0,0,0,0,0,0,0,0,0,0,0,0,0,0,0,0,0,0,0,0,0,0,0,0,0,0,0,0,0,0,0,0,0,0,0,0,0,0,0,0,0,0,0,0,0,0,0,0,0,0,0,0,0,0,0,0,0,0,0,0,0,0,0,0,0,0,0,0,0,0,0,0,0,0,0,0,0,0,0,0,0,0,0,0,0,0,0,0,0,0,0,0,0,0,0,0,0,0,0,0,0,0,0,0,0,0,0,0,0,0,0,0,0,0,0,0,0,0,0,0,0,0,0,0,0,0,0,0,0,0,0,0,0,0,0,0,0,0,0,0,0,0,0,0],"trees":[{"base_weights":[-4.8177745E-3,-1.5039569E-1,6.3292235E-1,-2.3210335E-1,9.813495E-3,3.285568E-1,1.295893E0,-2.6051262E-1,-1.2762518E-1,-1.6355652E-1,3.514651E-1,1.6193776E-1,5.3325665E-1,9.91369E-1,7.810924E-2,-1.37299625E-2,-2.2662659E-1,-1.858693E-1,3.45229E-2,-1.9612001E-1,-1.6968038E-2,1.9127315E-1,4.4471118E-1,1.108021E-1,1.411593E-2,1.3218741E-2,2.9839402E-2,2.1424368E-2,5.586924E-2,-1.2357072E-2,-7.5912587E-3,-5.640321E-3,-1.0031676E-2,-1.5062576E-3,3.934679E-3,-1.1249112E-2,-6.5016337E-3,-2.9007585E-3,3.4259916E-3,-1.3040084E-3,1.3634083E-2,1.38568105E-2,2.8063117E-2,1.4659929E-3,6.364019E-3],"categories":[],"categories_nodes":[],"categories_segments":[],"categories_sizes":[],"default_left":[0,0,0,0,0,0,0,0,0,0,0,0,0,0,0,0,0,0,0,0,0,0,0,0,0,0,0,0,0,0,0,0,0,0,0,0,0,0,0,0,0,0,0,0,0],"id":0,"left_children":[1,3,5,7,9,11,13,15,17,19,21,23,25,27,-1,-1,29,31,33,35,37,39,41,43,-1,-1,-1,-1,-1,-1,-1,-1,-1,-1,-1,-1,-1,-1,-1,-1,-1,-1,-1,-1,-1],"loss_changes":[3.5467564E1,4.0733657E0,1.3900991E1,5.7818985E-1,6.336092E0,1.6189904E0,2.3532867E-1,1.4619827E-2,4.408486E-1,3.355857E-1,4.526806E-1,1.472354E-1,2.1803808E-1,4.4332886E-1,0E0,0E0,4.380846E-2,1.4043689E-2,3.9492782E-2,8.13756E-2,5.310163E-2,2.725277E-1,2.7413702E-1,2.5807291E-2,0E0,0E0,0E0,0E0,0E0,0E0,0E0,0E0,0E0,0E0,0E0,0E0,0E0,0E0,0E0,0E0,0E0,0E0,0E0,0E0,0E0],"parents":[2147483647,0,0,1,1,2,2,3,3,4,4,5,5,6,6,7,7,8,8,9,9,10,10,11,11,12,12,13,13,16,16,17,17,18,18,19,19,20,20,21,21,22,22,23,23],"right_children":[2,4,6,8,10,12,14,16,18,20,22,24,26,28,-1,-1,30,32,34,36,38,40,42,44,-1,-1,-1,-1,-1,-1,-1,-1,-1,-1,-1,-1,-1,-1,-1,-1,-1,-1,-1,-1,-1],"split_conditions":[9.5E-1,7.5E-1,7E-1,8E-1,7.95E-1,6.5E-1,7.9E-1,6.5E-1,6.5E-1,9E-1,8E-1,1.15E0,9.75E-1,9.75E-1,7.810924E-2,-1.37299625E-2,7.95E-1,1.37E0,7E-1,7.54E-1,7.5E-1,8.28E-1,8.3E-1,9.75E-1,1.411593E-2,1.3218741E-2,2.9839402E-2,2.1424368E-2,5.586924E-2,-1.2357072E-2,-7.5912587E-3,-5.640321E-3,-1.0031676E-2,-1.5062576E-3,3.934679E-3,-1.1249112E-2,-6.5016337E-3,-2.9007585E-3,3.4259916E-3,-1.3040084E-3,1.3634083E-2,1.38568105E-2,2.8063117E-2,1.4659929E-3,6.364019E-3],"split_indices":[3,3,0,0,2,0,2,3,3,3,3,3,3,3,0,0,2,5,3,2,2,2,2,3,0,0,0,0,0,0,0,0,0,0,0,0,0,0,0,0,0,0,0,0,0],"split_type":[0,0,0,0,0,0,0,0,0,0,0,0,0,0,0,0,0,0,0,0,0,0,0,0,0,0,0,0,0,0,0,0,0,0,0,0,0,0,0,0,0,0,0,0,0],"sum_hessian":[3.8E2,3.1E2,7E1,2.05E2,1.05E2,4.9E1,2.1E1,1.6E2,4.5E1,7E1,3.5E1,2.8E1,2.1E1,1.2E1,9E0,1.08E2,5.2E1,3.3E1,1.2E1,5.7E1,1.3E1,1.4E1,2.1E1,2.1E1,7E0,5E0,1.6E1,3E0,9E0,3.9E1,1.3E1,7E0,2.6E1,5E0,7E0,3.8E1,1.9E1,9E0,4E0,4E0,1E1,1E1,1.1E1,4E0,1.7E1],"tree_param":{"num_deleted":"0","num_feature":"7","num_nodes":"45","size_leaf_vector":"1"}},{"base_weights":[9.559768E-3,-1.286805E-1,5.881982E-1,-2.1505302E-1,2.0602379E-2,2.7094722E-1,1.293681E0,-2.33181E-1,4.1151036E-2,-1.5364851E-1,3.685759E-1,1.17784575E-1,4.987291E-1,1.0788311E0,8.6130865E-2,-1.2732388E-2,-1.6615884E-1,-7.7474676E-2,1.7084455E-1,-1.9429947E-1,-2.6045773E-2,2.5281686E-1,5.369359E-1,-2.530761E-3,1.502745E-1,1.26679605E-2,2.7978614E-2,2.3299893E-2,5.851656E-2,-1.0061319E-2,-2.2093698E-3,-5.5044927E-3,-8.6685194E-4,2.6241264E-3,1.0384643E-2,-1.032628E-2,-6.108702E-3,-5.639152E-3,2.7587044E-3,6.469934E-3,1.990655E-2,8.426432E-3,2.9032512E-2,-1.5179765E-3,1.6443946E-3,4.412248E-3,8.223556E-3],"categories":[],"categories_nodes":[],"categories_segments":[],"categories_sizes":[],"default_left":[0,0,0,0,0,0,0,0,0,0,0,0,0,0,0,0,0,0,0,0,0,0,0,0,0,0,0,0,0,0,0,0,0,0,0,0,0,0,0,0,0,0,0,0,0,0,0],"id":1,"left_children":[1,3,5,7,9,11,13,15,17,19,21,23,25,27,-1,-1,29,31,33,35,37,39,41,43,45,-1,-1,-1,-1,-1,-1,-1,-1,-1,-1,-1,-1,-1,-1,-1,-1,-1,-1,-1,-1,-1,-1],"loss_changes":[3.1112246E1,4.0531273E0,1.6435612E1,9.338436E-1,7.0902557E0,1.7903042E0,2.6119614E-1,2.2529507E-1,2.2862594E-1,3.9953876E-1,6.2433195E-1,1.2937853E-1,1.7173767E-1,4.6396637E-1,0E0,0E0,1.9641578E-1,1.3782561E-2,1.9629836E-2,2.6795149E-2,1.4711848E-1,3.968426E-1,1.4371347E-1,8.883721E-3,8.382142E-3,0E0,0E0,0E0,0E0,0E0,0E0,0E0,0E0,0E0,0E0,0E0,0E0,0E0,0E0,0E0,0E0,0E0,0E0,0E0,0E0,0E0,0E0],"parents":[2147483647,0,0,1,1,2,2,3,3,4,4,5,5,6,6,7,7,8,8,9,9,10,10,11,11,12,12,13,13,16,16,17,17,18,18,19,19,20,20,21,21,22,22,23,23,24,24],"right_children":[2,4,6,8,10,12,14,16,18,20,22,24,26,28,-1,-1,30,32,34,36,38,40,42,44,46,-1,-1,-1,-1,-1,-1,-1,-1,-1,-1,-1,-1,-1,-1,-1,-1,-1,-1,-1,-1,-1,-1],"split_conditions":[2.39E0,7.5E-1,7E-1,2.264E0,1.783E0,6.5E-1,7.95E-1,1.95E0,7.5E-1,1.621E0,2.041E0,2.516E0,2.51E0,2.444E0,8.6130865E-2,-1.2732388E-2,7.1E-1,6.5E-1,7.1E-1,1.5E0,8E-1,8E-1,5E-1,2.448E0,2.706E0,1.26679605E-2,2.7978614E-2,2.3299893E-2,5.851656E-2,-1.0061319E-2,-2.2093698E-3,-5.5044927E-3,-8.6685194E-4,2.6241264E-3,1.0384643E-2,-1.032628E-2,-6.108702E-3,-5.639152E-3,2.7587044E-3,6.469934E-3,1.990655E-2,8.426432E-3,2.9032512E-2,-1.5179765E-3,1.6443946E-3,4.412248E-3,8.223556E-3],"split_indices":[4,0,0,4,4,0,2,4,2,4,4,4,4,4,0,0,1,0,1,4,0,0,5,4,4,0,0,0,0,0,0,0,0,0,0,0,0,0,0,0,0,0,0,0,0,0,0],"split_type":[0,0,0,0,0,0,0,0,0,0,0,0,0,0,0,0,0,0,0,0,0,0,0,0,0,0,0,0,0,0,0,0,0,0,0,0,0,0,0,0,0,0,0,0,0,0,0],"sum_hessian":[3.87E2,3.13E2,7.4E1,1.98E2,1.15E2,5.2E1,2.2E1,1.85E2,1.3E1,7.7E1,3.8E1,3.2E1,2E1,1.7E1,5E0,1.38E2,4.7E1,7E0,6E0,5.8E1,1.9E1,2.4E1,1.4E1,7E0,2.5E1,5E0,1.5E1,3E0,1.4E1,3.6E1,1.1E1,4E0,3E0,2E0,4E0,4.8E1,1E1,9E0,1E1,1.4E1,1E1,2E0,1.2E1,4E0,3E0,6E0,1.9E1],"tree_param":{"num_deleted":"0","num_feature":"7","num_nodes":"47","size_leaf_vector":"1"}},{"base_weights":[4.92096E-3,-1.329713E-1,5.803257E-1,-2.0969722E-1,-6.1265584E-3,2.782959E-1,1.2105434E0,-2.3487826E-1,-8.354941E-2,-1.4872682E-1,3.2677755E-1,1.2765704E-1,4.9458864E-1,1.0077891E0,8.254208E-2,-1.2492965E-2,-2.0597753E-1,-1.3820198E-1,4.3287948E-2,-9.845058E-3,-6.001256E-2,1.5552954E-1,4.1680774E-1,2.9821476E-2,1.7748417E-1,1.1290523E-2,2.7227381E-2,2.2370173E-2,5.636992E-2,-1.1311652E-2,-7.831132E-3,-7.933063E-3,-3.2924626E-3,-1.8019958E-3,7.2844685E-3,-4.293759E-3,3.1030437E-3,2.5547426E-3,1.2633249E-2,1.0861536E-2,2.647954E-2,-1.5349298E-3,2.6702895E-3,6.587685E-3,1.2506159E-2],"categories":[],"categories_nodes":[],"categories_segments":[],"categories_sizes":[],"default_left":[0,0,0,0,0,0,0,0,0,0,0,0,0,0,0,0,0,0,0,0,0,0,0,0,0,0,0,0,0,0,0,0,0,0,0,0,0,0,0,0,0,0,0,0,0],"id":2,"left_children":[1,3,5,7,9,11,13,15,17,19,21,23,25,27,-1,-1,29,31,33,-1,35,37,39,41,43,-1,-1,-1,-1,-1,-1,-1,-1,-1,-1,-1,-1,-1,-1,-1,-1,-1,-1,-1,-1],"loss_changes":[3.0783241E1,3.0449185E0,1.3938955E1,5.998001E-1,5.697794E0,1.6311312E0,4.7883224E-1,1.867485E-2,2.4167004E-1,3.4717858E-1,4.9020338E-1,1.5070283E-1,1.590209E-1,7.6911545E-1,0E0,0E0,2.5548697E-2,2.5079101E-2,9.460678E-2,0E0,1.0320079E-1,1.2911046E-1,4.0266132E-1,1.8767375E-2,3.6803484E-2,0E0,0E0,0E0,0E0,0E0,0E0,0E0,0E0,0E0,0E0,0E0,0E0,0E0,0E0,0E0,0E0,0E0,0E0,0E0,0E0],"parents":[2147483647,0,0,1,1,2,2,3,3,4,4,5,5,6,6,7,7,8,8,9,9,10,10,11,11,12,12,13,13,16,16,17,17,18,18,20,20,21,21,22,22,23,23,24,24],"right_children":[2,4,6,8,10,12,14,16,18,20,22,24,26,28,-1,-1,30,32,34,-1,36,38,40,42,44,-1,-1,-1,-1,-1,-1,-1,-1,-1,-1,-1,-1,-1,-1,-1,-1,-1,-1,-1,-1],"split_conditions":[2.39E0,7.5E-1,7E-1,2.139E0,1.783E0,6.5E-1,7.95E-1,1.741E0,7.54E-1,1.5E0,1.915E0,2.577E0,2.51E0,2.444E0,8.254208E-2,-1.2492965E-2,7.54E-1,2.32E0,2.264E0,-9.845058E-3,3.51E0,8E-1,8.3E-1,2.448E0,2.964E0,1.1290523E-2,2.7227381E-2,2.2370173E-2,5.636992E-2,-1.1311652E-2,-7.831132E-3,-7.933063E-3,-3.2924626E-3,-1.8019958E-3,7.2844685E-3,-4.293759E-3,3.1030437E-3,2.5547426E-3,1.2633249E-2,1.0861536E-2,2.647954E-2,-1.5349298E-3,2.6702895E-3,6.587685E-3,1.2506159E-2],"split_indices":[4,0,0,4,4,0,2,4,2,4,4,4,4,4,0,0,2,4,4,0,5,0,2,4,4,0,0,0,0,0,0,0,0,0,0,0,0,0,0,0,0,0,0,0,0],"split_type":[0,0,0,0,0,0,0,0,0,0,0,0,0,0,0,0,0,0,0,0,0,0,0,0,0,0,0,0,0,0,0,0,0,0,0,0,0,0,0,0,0,0,0,0,0],"sum_hessian":[3.86E2,3.12E2,7.4E1,1.94E2,1.18E2,5.1E1,2.3E1,1.61E2,3.3E1,8.3E1,3.5E1,3.1E1,2E1,1.8E1,5E0,1.01E2,6E1,2.3E1,1E1,5.3E1,3E1,1.3E1,2.2E1,1.1E1,2E1,4E0,1.6E1,4E0,1.4E1,4E1,2E1,1.7E1,6E0,6E0,4E0,2.5E1,5E0,7E0,6E0,9E0,1.3E1,3E0,8E0,1.4E1,6E0],"tree_param":{"num_deleted":"0","num_feature":"7","num_nodes":"45","size_leaf_vector":"1"}},{"base_weights":[-9.488568E-3,-1.2985414E-1,5.3396004E-1,-1.936992E-1,3.6447424E-2,2.8021768E-1,1.1368477E0,-2.1899946E-1,-8.783858E-2,3.8310683E-1,-1.0811028E-1,1.4094642E-1,4.960044E-1,2.7929295E-2,6.010961E-2,-1.1631803E-2,-1.7155014E-1,-1.485351E-1,1.2430776E-1,2.7227584E-1,2.4947794E-2,-1.4095435E-1,2.1604095E-2,1.11379825E-1,1.4212166E-2,8.80522E-3,2.7104914E-2,-9.974557E-3,-3.2255736E-3,-7.936013E-3,-2.5803007E-3,2.6539722E-3,8.740906E-3,8.981917E-3,1.8285928E-2,-8.667113E-3,-2.8623813E-3,-2.8404554E-3,8.705485E-3,1.2347674E-3,6.2130764E-3],"categories":[],"categories_nodes":[],"categories_segments":[],"categories_sizes":[],"default_left":[0,0,0,0,0,0,0,0,0,0,0,0,0,0,0,0,0,0,0,0,0,0,0,0,0,0,0,0,0,0,0,0,0,0,0,0,0,0,0,0,0],"id":3,"left_children":[1,3,5,7,9,11,13,15,17,19,21,23,25,-1,-1,-1,27,29,31,33,-1,35,37,39,-1,-1,-1,-1,-1,-1,-1,-1,-1,-1,-1,-1,-1,-1,-1,-1,-1],"loss_changes":[2.597269E1,3.457759E0,1.0695862E1,6.1016273E-1,4.601636E0,1.4928398E0,1.21982574E-1,8.238411E-2,6.2366164E-1,2.1081734E-1,2.7996778E-1,1.0815543E-1,1.9944286E-1,0E0,0E0,0E0,1.2470579E-1,2.8336883E-2,3.0296206E-2,7.2803736E-2,0E0,1.3105297E-1,1.7730935E-1,2.9313982E-2,0E0,0E0,0E0,0E0,0E0,0E0,0E0,0E0,0E0,0E0,0E0,0E0,0E0,0E0,0E0,0E0,0E0],"parents":[2147483647,0,0,1,1,2,2,3,3,4,4,5,5,6,6,7,7,8,8,9,9,10,10,11,11,12,12,16,16,17,17,18,18,19,19,21,21,22,22,23,23],"right_children":[2,4,6,8,10,12,14,16,18,20,22,24,26,-1,-1,-1,28,30,32,34,-1,36,38,40,-1,-1,-1,-1,-1,-1,-1,-1,-1,-1,-1,-1,-1,-1,-1,-1,-1],"split_conditions":[9.5E-1,7.75E-1,7E-1,8E-1,6.104E0,6.5E-1,-1.54E0,7E-1,7E-1,8.5E-1,9E-1,1.2E0,9.75E-1,2.7929295E-2,6.010961E-2,-1.1631803E-2,7.5E-1,6.5E-1,1.5E0,8E-1,2.4947794E-2,4.8E-1,7E-1,9.75E-1,1.4212166E-2,8.80522E-3,2.7104914E-2,-9.974557E-3,-3.2255736E-3,-7.936013E-3,-2.5803007E-3,2.6539722E-3,8.740906E-3,8.981917E-3,1.8285928E-2,-8.667113E-3,-2.8623813E-3,-2.8404554E-3,8.705485E-3,1.2347674E-3,6.2130764E-3],"split_indices":[3,3,0,0,6,0,5,3,3,3,3,3,3,0,0,0,0,3,5,0,0,5,0,3,0,0,0,0,0,0,0,0,0,0,0,0,0,0,0,0,0],"split_type":[0,0,0,0,0,0,0,0,0,0,0,0,0,0,0,0,0,0,0,0,0,0,0,0,0,0,0,0,0,0,0,0,0,0,0,0,0,0,0,0,0],"sum_hessian":[3.95E2,3.24E2,7.1E1,2.34E2,9E1,5.1E1,2E1,1.88E2,4.6E1,2.6E1,6.4E1,3.2E1,1.9E1,3E0,1.7E1,1.43E2,4.5E1,3.6E1,1E1,1.5E1,1.1E1,5.1E1,1.3E1,2.8E1,4E0,3E0,1.6E1,3.5E1,1E1,3.2E1,4E0,5E0,5E0,9E0,6E0,3.6E1,1.5E1,9E0,4E0,4E0,2.4E1],"tree_param":{"num_deleted":"0","num_feature":"7","num_nodes":"41","size_leaf_vector":"1"}},{"base_weights":[-8.913927E-3,-1.1034938E-1,5.613769E-1,-1.8393946E-1,6.0245454E-2,3.233807E-1,5.5817276E-2,-2.1405564E-1,-9.6046545E-2,-8.0587804E-2,3.089422E-1,1.6149989E-1,2.4668729E-2,-1.742042E-1,-1.127298E-2,-1.4539956E-1,4.8761703E-2,-1.258751E-1,1.490578E-1,1.9246209E-1,4.782351E-1,6.1845514E-3,1.3643681E-2,-9.389064E-3,-3.9746463E-3,-4.289973E-3,-7.998837E-3,-9.161853E-4,5.906879E-3,-7.641011E-3,-1.4569471E-3,2.65164E-3,1.2684062E-2,1.6486364E-3,1.3766246E-2,1.54970605E-2,3.0112585E-2],"categories":[],"categories_nodes":[],"categories_segments":[],"categories_sizes":[],"default_left":[0,0,0,0,0,0,0,0,0,0,0,0,0,0,0,0,0,0,0,0,0,0,0,0,0,0,0,0,0,0,0,0,0,0,0,0,0],"id":4,"left_children":[1,3,5,7,9,11,-1,13,15,17,19,21,-1,23,-1,25,27,29,31,33,35,-1,-1,-1,-1,-1,-1,-1,-1,-1,-1,-1,-1,-1,-1,-1,-1],"loss_changes":[2.2217623E1,4.103714E0,7.2996597E0,5.829563E-1,3.4923496E0,1.0761075E0,0E0,3.752756E-2,4.358933E-1,6.843645E-1,6.1785126E-1,6.309903E-2,0E0,3.908074E-2,0E0,2.5370121E-2,7.663046E-2,1.3630158E-1,9.7057715E-2,2.9488367E-1,1.0553479E-1,0E0,0E0,0E0,0E0,0E0,0E0,0E0,0E0,0E0,0E0,0E0,0E0,0E0,0E0,0E0,0E0],"parents":[2147483647,0,0,1,1,2,2,3,3,4,4,5,5,7,7,8,8,9,9,10,10,11,11,13,13,15,15,16,16,17,17,18,18,19,19,20,20],"right_children":[2,4,6,8,10,12,-1,14,16,18,20,22,-1,24,-1,26,28,30,32,34,36,-1,-1,-1,-1,-1,-1,-1,-1,-1,-1,-1,-1,-1,-1,-1,-1],"split_conditions":[1E0,7.75E-1,7E-1,8.34E-1,7.9E-1,6.5E-1,5.5817276E-2,6.224E0,6.75E-1,9.5E-1,8.34E-1,1.2E0,2.4668729E-2,7.25E-1,-1.127298E-2,1.37E0,7.25E-1,9E-1,6.5E-1,8.25E-1,8.5E-1,6.1845514E-3,1.3643681E-2,-9.389064E-3,-3.9746463E-3,-4.289973E-3,-7.998837E-3,-9.161853E-4,5.906879E-3,-7.641011E-3,-1.4569471E-3,2.65164E-3,1.2684062E-2,1.6486364E-3,1.3766246E-2,1.54970605E-2,3.0112585E-2],"split_indices":[3,3,0,2,2,0,0,6,3,3,2,3,0,3,0,5,3,3,0,3,3,0,0,0,0,0,0,0,0,0,0,0,0,0,0,0,0],"split_type":[0,0,0,0,0,0,0,0,0,0,0,0,0,0,0,0,0,0,0,0,0,0,0,0,0,0,0,0,0,0,0,0,0,0,0,0,0],"sum_hessian":[3.82E2,3.25E2,5.7E1,2.27E2,9.8E1,4.1E1,1.6E1,1.68E2,5.9E1,6.3E1,3.5E1,2.2E1,1.9E1,4.1E1,1.27E2,4.4E1,1.5E1,5.3E1,1E1,2.2E1,1.3E1,1.8E1,4E0,3.5E1,6E0,1E1,3.4E1,8E0,7E0,4.1E1,1.2E1,6E0,4E0,8E0,1.4E1,7E0,6E0],"tree_param":{"num_deleted":"0","num_feature":"7","num_nodes":"37","size_leaf_vector":"1"}},{"base_weights":[8.837079E-3,-1.0607112E-1,5.162256E-1,-1.7112656E-1,5.077509E-2,2.5498667E-1,5.692603E-2,-1.9370252E-1,-7.385492E-2,-9.8742634E-2,3.435514E-1,1.2600808E-1,4.2513898E-1,-1.0537653E-2,-1.4171244E-1,-1.3490553E-1,8.2104646E-2,-1.3468066E-1,3.6660492E-2,2.5355703E-1,4.9230814E-1,9.149079E-2,1.0690446E-2,9.349327E-3,2.338368E-2,-1.3361791E-3,-8.3781555E-3,-3.6642016E-3,-7.791601E-3,-1.122032E-4,7.736206E-3,-7.7979243E-3,-1.7386266E-4,-5.864436E-4,8.028306E-3,8.369644E-3,1.7970858E-2,1.0263488E-2,2.8714443E-2,7.6185394E-4,5.0829304E-3],"categories":[],"categories_nodes":[],"categories_segments":[],"categories_sizes":[],"default_left":[0,0,0,0,0,0,0,0,0,0,0,0,0,0,0,0,0,0,0,0,0,0,0,0,0,0,0,0,0,0,0,0,0,0,0,0,0,0,0,0,0],"id":5,"left_children":[1,3,5,7,9,11,-1,13,15,17,19,21,23,-1,25,27,29,31,33,35,37,39,-1,-1,-1,-1,-1,-1,-1,-1,-1,-1,-1,-1,-1,-1,-1,-1,-1,-1,-1],"loss_changes":[2.2734663E1,3.2534654E0,1.1414564E1,4.797945E-1,4.148796E0,1.0876215E0,0E0,1.3146877E-1,4.3001908E-1,3.1150305E-1,3.0356455E-1,7.4388474E-2,1.354053E-1,0E0,1.3820392E-1,2.984476E-2,7.997689E-2,1.3904387E-1,8.582326E-2,1.4050591E-1,1.4096332E-1,1.7059028E-2,0E0,0E0,0E0,0E0,0E0,0E0,0E0,0E0,0E0,0E0,0E0,0E0,0E0,0E0,0E0,0E0,0E0,0E0,0E0],"parents":[2147483647,0,0,1,1,2,2,3,3,4,4,5,5,7,7,8,8,9,9,10,10,11,11,12,12,14,14,15,15,16,16,17,17,18,18,19,19,20,20,21,21],"right_children":[2,4,6,8,10,12,-1,14,16,18,20,22,24,-1,26,28,30,32,34,36,38,40,-1,-1,-1,-1,-1,-1,-1,-1,-1,-1,-1,-1,-1,-1,-1,-1,-1,-1,-1],"split_conditions":[9.5E-1,7.75E-1,7E-1,8E-1,7.5E-1,6.5E-1,5.692603E-2,7E-1,6.75E-1,9E-1,8E-1,1.15E0,9.75E-1,-1.0537653E-2,6.104E0,6.02E0,7.25E-1,7.1E-1,7.1E-1,8.75E-1,8E-1,9.75E-1,1.0690446E-2,9.349327E-3,2.338368E-2,-1.3361791E-3,-8.3781555E-3,-3.6642016E-3,-7.791601E-3,-1.122032E-4,7.736206E-3,-7.7979243E-3,-1.7386266E-4,-5.864436E-4,8.028306E-3,8.369644E-3,1.7970858E-2,1.0263488E-2,2.8714443E-2,7.6185394E-4,5.0829304E-3],"split_indices":[3,3,0,0,0,0,0,3,3,3,0,3,3,0,6,6,3,1,1,3,3,3,0,0,0,0,0,0,0,0,0,0,0,0,0,0,0,0,0,0,0],"split_type":[0,0,0,0,0,0,0,0,0,0,0,0,0,0,0,0,0,0,0,0,0,0,0,0,0,0,0,0,0,0,0,0,0,0,0,0,0,0,0,0,0],"sum_hessian":[3.88E2,3.17E2,7.1E1,2.24E2,9.3E1,5.1E1,2E1,1.81E2,4.3E1,6.2E1,3.1E1,3E1,2.1E1,1.34E2,4.7E1,3.1E1,1.2E1,4.9E1,1.3E1,2.1E1,1E1,2.3E1,7E0,4E0,1.7E1,9E0,3.8E1,9E0,2.2E1,6E0,6E0,4.2E1,7E0,1E1,3E0,1.3E1,8E0,3E0,7E0,3E0,2E1],"tree_param":{"num_deleted":"0","num_feature":"7","num_nodes":"41","size_leaf_vector":"1"}},{"base_weights":[-6.137168E-3,-1.0609532E-1,4.6140444E-1,-1.6539764E-1,3.4850113E-2,2.6934612E-1,1.1220541E0,-1.9731419E-1,-1.0431899E-1,-9.456717E-2,3.3264697E-1,1.1257542E-1,4.338463E-1,2.4923977E-2,6.1820388E-2,-1.03659E-2,-1.7257065E-1,-1.4995201E-1,2.4640083E-4,-1.0895717E-1,1.05660245E-1,2.3077683E-1,2.391819E-2,4.146067E-2,1.3331826E-1,1.1208463E-2,2.4277046E-2,-8.91739E-3,-4.3608765E-3,-8.360053E-3,-5.4234765E-3,-2.6284552E-3,3.092198E-3,-7.1267234E-3,-1.7507622E-3,-2.2328299E-4,9.028303E-3,4.24994E-3,1.4576032E-2,6.457843E-4,2.8002262E-3,5.691215E-3,1.0941931E-2],"categories":[],"categories_nodes":[],"categories_segments":[],"categories_sizes":[],"default_left":[0,0,0,0,0,0,0,0,0,0,0,0,0,0,0,0,0,0,0,0,0,0,0,0,0,0,0,0,0,0,0,0,0,0,0,0,0,0,0,0,0,0,0],"id":6,"left_children":[1,3,5,7,9,11,13,15,17,19,21,23,25,-1,-1,-1,27,29,31,33,35,37,-1,39,41,-1,-1,-1,-1,-1,-1,-1,-1,-1,-1,-1,-1,-1,-1,-1,-1,-1,-1],"loss_changes":[1.804177E1,2.6637328E0,8.325839E0,4.160862E-1,3.6927633E0,1.3437552E0,4.5329666E-1,3.619194E-4,3.7699616E-1,2.0455772E-1,3.20086E-1,3.7251055E-2,1.7297554E-1,0E0,0E0,0E0,8.113623E-3,2.1218061E-2,8.458373E-2,1.5142363E-1,4.2051703E-2,1.4346826E-1,0E0,2.5978945E-3,1.1767775E-2,0E0,0E0,0E0,0E0,0E0,0E0,0E0,0E0,0E0,0E0,0E0,0E0,0E0,0E0,0E0,0E0,0E0,0E0],"parents":[2147483647,0,0,1,1,2,2,3,3,4,4,5,5,6,6,7,7,8,8,9,9,10,10,11,11,12,12,16,16,17,17,18,18,19,19,20,20,21,21,23,23,24,24],"right_children":[2,4,6,8,10,12,14,16,18,20,22,24,26,-1,-1,-1,28,30,32,34,36,38,-1,40,42,-1,-1,-1,-1,-1,-1,-1,-1,-1,-1,-1,-1,-1,-1,-1,-1,-1,-1],"split_conditions":[9.5E-1,7.75E-1,7.1E-1,7.5E-1,7.5E-1,6.5E-1,-5.1E-1,6.75E-1,6.75E-1,2.5E0,8E-1,1E0,9.75E-1,2.4923977E-2,6.1820388E-2,-1.03659E-2,2.5E0,5.75E-1,8E-1,8.75E-1,8.25E-1,8.25E-1,2.391819E-2,9.75E-1,1.2E0,1.1208463E-2,2.4277046E-2,-8.91739E-3,-4.3608765E-3,-8.360053E-3,-5.4234765E-3,-2.6284552E-3,3.092198E-3,-7.1267234E-3,-1.7507622E-3,-2.2328299E-4,9.028303E-3,4.24994E-3,1.4576032E-2,6.457843E-4,2.8002262E-3,5.691215E-3,1.0941931E-2],"split_indices":[3,3,1,0,0,0,5,3,3,5,0,3,3,0,0,0,5,3,0,3,3,3,0,3,3,0,0,0,0,0,0,0,0,0,0,0,0,0,0,0,0,0,0],"split_type":[0,0,0,0,0,0,0,0,0,0,0,0,0,0,0,0,0,0,0,0,0,0,0,0,0,0,0,0,0,0,0,0,0,0,0,0,0,0,0,0,0,0,0],"sum_hessian":[3.84E2,3.17E2,6.7E1,2.23E2,9.4E1,5.3E1,1.4E1,1.45E2,7.8E1,6.6E1,2.8E1,2.8E1,2.5E1,3E0,1.1E1,9.8E1,4.7E1,5.4E1,2.4E1,6.2E1,4E0,1.8E1,1E1,7E0,2.1E1,6E0,1.9E1,4.3E1,4E0,3.6E1,1.8E1,1.3E1,1.1E1,4.2E1,2E1,2E0,2E0,6E0,1.2E1,3E0,4E0,1.9E1,2E0],"tree_param":{"num_deleted":"0","num_feature":"7","num_nodes":"43","size_leaf_vector":"1"}},{"base_weights":[1.1613952E-2,-9.7969465E-2,4.8829293E-1,-1.5521125E-1,4.9042247E-2,2.4426918E-1,9.5680875E-1,-1.855226E-1,-8.928586E-2,-9.849436E-2,3.2414082E-1,1.2982136E-1,4.0944985E-1,7.7795976E-1,6.96752E-2,-9.743506E-3,-1.5930039E-1,-1.2981117E-1,5.661293E-2,-1.4021833E-1,-5.209644E-2,1.774456E-1,4.28379E-1,9.369994E-2,1.0385352E-2,9.665951E-3,2.1810943E-2,1.4999825E-2,4.3935042E-2,-8.296266E-3,-3.523295E-3,-7.3470077E-3,-3.2128997E-3,-1.1243054E-4,4.446182E-3,-7.670579E-3,-6.4055173E-4,-4.566248E-3,1.1982092E-3,1.7000645E-3,1.0523662E-2,1.1374485E-2,2.4407245E-2,1.6358396E-3,4.8974957E-3],"categories":[],"categories_nodes":[],"categories_segments":[],"categories_sizes":[],"default_left":[0,0,0,0,0,0,0,0,0,0,0,0,0,0,0,0,0,0,0,0,0,0,0,0,0,0,0,0,0,0,0,0,0,0,0,0,0,0,0,0,0,0,0,0,0],"id":7,"left_children":[1,3,5,7,9,11,13,15,17,19,21,23,25,27,-1,-1,29,31,33,35,37,39,41,43,-1,-1,-1,-1,-1,-1,-1,-1,-1,-1,-1,-1,-1,-1,-1,-1,-1,-1,-1,-1,-1],"loss_changes":[2.06811E1,2.717311E0,8.226627E0,4.4703817E-1,3.725353E0,8.9207315E-1,8.6847115E-1,7.6851845E-3,4.5079362E-1,1.08849466E-1,4.1330576E-1,6.775147E-2,3.138256E-2,6.994028E-1,0E0,0E0,1.5968442E-2,5.6806564E-2,3.253154E-2,5.0143063E-2,9.1700904E-2,6.390801E-2,1.0506606E-1,2.7564615E-3,0E0,0E0,0E0,0E0,0E0,0E0,0E0,0E0,0E0,0E0,0E0,0E0,0E0,0E0,0E0,0E0,0E0,0E0,0E0,0E0,0E0],"parents":[2147483647,0,0,1,1,2,2,3,3,4,4,5,5,6,6,7,7,8,8,9,9,10,10,11,11,12,12,13,13,16,16,17,17,18,18,19,19,20,20,21,21,22,22,23,23],"right_children":[2,4,6,8,10,12,14,16,18,20,22,24,26,28,-1,-1,30,32,34,36,38,40,42,44,-1,-1,-1,-1,-1,-1,-1,-1,-1,-1,-1,-1,-1,-1,-1,-1,-1,-1,-1,-1,-1],"split_conditions":[9.5E-1,7.75E-1,7E-1,8.3E-1,7.5E-1,6.5E-1,7.95E-1,6.75E-1,7E-1,8.5E-1,8.34E-1,1.15E0,9.75E-1,9.75E-1,6.96752E-2,-9.743506E-3,7.5E-1,6.25E-1,8E-1,7.9E-1,7.5E-1,8E-1,8E-1,9.75E-1,1.0385352E-2,9.665951E-3,2.1810943E-2,1.4999825E-2,4.3935042E-2,-8.296266E-3,-3.523295E-3,-7.3470077E-3,-3.2128997E-3,-1.1243054E-4,4.446182E-3,-7.670579E-3,-6.4055173E-4,-4.566248E-3,1.1982092E-3,1.7000645E-3,1.0523662E-2,1.1374485E-2,2.4407245E-2,1.6358396E-3,4.8974957E-3],"split_indices":[3,3,0,2,0,0,2,3,3,3,2,3,3,3,0,0,0,3,0,2,2,3,3,3,0,0,0,0,0,0,0,0,0,0,0,0,0,0,0,0,0,0,0,0,0],"split_type":[0,0,0,0,0,0,0,0,0,0,0,0,0,0,0,0,0,0,0,0,0,0,0,0,0,0,0,0,0,0,0,0,0,0,0,0,0,0,0,0,0,0,0,0,0],"sum_hessian":[3.94E2,3.21E2,7.3E1,2.31E2,9E1,4.9E1,2.4E1,1.57E2,7.4E1,5.9E1,3.1E1,3E1,1.9E1,1.9E1,5E0,1.11E2,4.6E1,5.8E1,1.6E1,3E1,2.9E1,1.4E1,1.7E1,2.2E1,8E0,3E0,1.6E1,4E0,1.5E1,4.2E1,4E0,4.5E1,1.3E1,6E0,1E1,2.7E1,3E0,1.9E1,1E1,3E0,1.1E1,5E0,1.2E1,2E0,2E1],"tree_param":{"num_deleted":"0","num_feature":"7","num_nodes":"45","size_leaf_vector":"1"}},{"base_weights":[4.429926E-3,-9.6537955E-2,4.3785962E-1,-1.5380017E-1,7.871421E-3,2.242156E-1,8.825109E-1,-1.7294686E-1,-4.308881E-2,-1.0028712E-1,3.0418125E-1,9.468791E-2,3.713859E-1,7.188567E-1,6.803128E-2,-9.294367E-3,-1.5051088E-1,-1.1282166E-1,5.462641E-2,-1.22802004E-1,4.691193E-2,1.9544145E-1,4.071409E-1,1.0976988E-2,1.3180897E-1,9.514975E-3,2.0451223E-2,1.4399829E-2,4.0428597E-2,-8.57339E-3,-5.6475834E-3,-6.543137E-3,-2.5961096E-3,4.8884976E-4,4.9039554E-3,-7.2497586E-3,-3.3643467E-3,-1.3965535E-3,4.391241E-3,3.1597768E-3,1.3091527E-2,1.0865449E-2,2.40163E-2,-9.478247E-4,1.7046029E-3,5.107023E-3,1.12473965E-2],"categories":[],"categories_nodes":[],"categories_segments":[],"categories_sizes":[],"default_left":[0,0,0,0,0,0,0,0,0,0,0,0,0,0,0,0,0,0,0,0,0,0,0,0,0,0,0,0,0,0,0,0,0,0,0,0,0,0,0,0,0,0,0,0,0,0,0],"id":8,"left_children":[1,3,5,7,9,11,13,15,17,19,21,23,25,27,-1,-1,29,31,33,35,37,39,41,43,45,-1,-1,-1,-1,-1,-1,-1,-1,-1,-1,-1,-1,-1,-1,-1,-1,-1,-1,-1,-1,-1,-1],"loss_changes":[1.7372213E1,1.9263561E0,6.9269094E0,4.334569E-1,3.716076E0,9.560909E-1,8.9979744E-1,2.3410797E-2,2.2420977E-1,2.874654E-1,2.6749802E-1,8.866882E-2,8.574295E-2,5.402279E-1,0E0,0E0,3.5731196E-2,1.408051E-2,2.6324678E-2,8.141577E-2,3.9197557E-2,1.3270807E-1,1.0401368E-1,7.5654117E-3,3.2289594E-2,0E0,0E0,0E0,0E0,0E0,0E0,0E0,0E0,0E0,0E0,0E0,0E0,0E0,0E0,0E0,0E0,0E0,0E0,0E0,0E0,0E0,0E0],"parents":[2147483647,0,0,1,1,2,2,3,3,4,4,5,5,6,6,7,7,8,8,9,9,10,10,11,11,12,12,13,13,16,16,17,17,18,18,19,19,20,20,21,21,22,22,23,23,24,24],"right_children":[2,4,6,8,10,12,14,16,18,20,22,24,26,28,-1,-1,30,32,34,36,38,40,42,44,46,-1,-1,-1,-1,-1,-1,-1,-1,-1,-1,-1,-1,-1,-1,-1,-1,-1,-1,-1,-1,-1,-1],"split_conditions":[2.39E0,7.5E-1,7E-1,2.139E0,1.849E0,6.5E-1,7.95E-1,1.741E0,7.5E-1,1.74E0,2.041E0,2.577E0,2.51E0,2.444E0,6.803128E-2,-9.294367E-3,7.54E-1,2.32E0,2.264E0,1.5E0,8.34E-1,8.34E-1,8.3E-1,2.448E0,3.093E0,9.514975E-3,2.0451223E-2,1.4399829E-2,4.0428597E-2,-8.57339E-3,-5.6475834E-3,-6.543137E-3,-2.5961096E-3,4.8884976E-4,4.9039554E-3,-7.2497586E-3,-3.3643467E-3,-1.3965535E-3,4.391241E-3,3.1597768E-3,1.3091527E-2,1.0865449E-2,2.40163E-2,-9.478247E-4,1.7046029E-3,5.107023E-3,1.12473965E-2],"split_indices":[4,0,0,4,4,0,2,4,2,4,4,4,4,4,0,0,2,4,4,4,2,2,2,4,4,0,0,0,0,0,0,0,0,0,0,0,0,0,0,0,0,0,0,0,0,0,0],"split_type":[0,0,0,0,0,0,0,0,0,0,0,0,0,0,0,0,0,0,0,0,0,0,0,0,0,0,0,0,0,0,0,0,0,0,0,0,0,0,0,0,0,0,0,0,0,0,0],"sum_hessian":[3.95E2,3.21E2,7.4E1,2.07E2,1.14E2,5.1E1,2.3E1,1.76E2,3.1E1,8.4E1,3E1,2.8E1,2.3E1,1.9E1,4E0,1.07E2,6.9E1,1.8E1,1.3E1,7.3E1,1.1E1,1.6E1,1.4E1,9E0,1.9E1,5E0,1.8E1,4E0,1.5E1,4.2E1,2.7E1,1.3E1,5E0,7E0,6E0,5.1E1,2.2E1,4E0,7E0,6E0,1E1,5E0,9E0,4E0,5E0,1.6E1,3E0],"tree_param":{"num_deleted":"0","num_feature":"7","num_nodes":"47","size_leaf_vector":"1"}},{"base_weights":[-8.022259E-3,-9.681341E-2,4.543828E-1,-1.4302523E-1,3.698071E-2,2.637358E-1,9.547373E-1,-1.6100171E-1,-6.6267096E-2,-6.891042E-2,2.7992252E-1,1.0162017E-1,4.0233275E-1,6.50007E-1,5.766929E-2,-8.804305E-3,-1.3046712E-1,-1.05962016E-1,9.51698E-2,-9.161839E-2,9.014369E-2,1.7293556E-1,2.4951313E-2,7.69912E-2,8.7443115E-3,1.0671412E-2,2.1407565E-2,1.1452123E-2,3.6878113E-2,-7.4842325E-3,-2.8726868E-3,-6.2194034E-3,-2.706886E-3,8.8170695E-4,6.2940097E-3,-6.0034352E-3,-1.8937992E-4,-1.0409817E-3,8.04428E-3,4.538675E-3,1.270704E-2,2.0944846E-3,4.6988134E-3],"categories":[],"categories_nodes":[],"categories_segments":[],"categories_sizes":[],"default_left":[0,0,0,0,0,0,0,0,0,0,0,0,0,0,0,0,0,0,0,0,0,0,0,0,0,0,0,0,0,0,0,0,0,0,0,0,0,0,0,0,0,0,0],"id":9,"left_children":[1,3,5,7,9,11,13,15,17,19,21,23,25,27,-1,-1,29,31,33,35,37,39,-1,41,-1,-1,-1,-1,-1,-1,-1,-1,-1,-1,-1,-1,-1,-1,-1,-1,-1,-1,-1],"loss_changes":[1.6056406E1,2.0332708E0,5.757839E0,3.260126E-1,2.2059472E0,1.0151453E0,2.7937412E-1,6.776428E-2,3.1767917E-1,2.2496662E-1,5.231731E-1,2.8038055E-2,3.0551434E-2,1.6278553E-1,0E0,0E0,8.821654E-2,3.0507624E-2,2.1591723E-2,1.3198239E-1,6.6147655E-2,1.0369855E-1,0E0,7.3911846E-3,0E0,0E0,0E0,0E0,0E0,0E0,0E0,0E0,0E0,0E0,0E0,0E0,0E0,0E0,0E0,0E0,0E0,0E0,0E0],"parents":[2147483647,0,0,1,1,2,2,3,3,4,4,5,5,6,6,7,7,8,8,9,9,10,10,11,11,12,12,13,13,16,16,17,17,18,18,19,19,20,20,21,21,23,23],"right_children":[2,4,6,8,10,12,14,16,18,20,22,24,26,28,-1,-1,30,32,34,36,38,40,-1,42,-1,-1,-1,-1,-1,-1,-1,-1,-1,-1,-1,-1,-1,-1,-1,-1,-1,-1,-1],"split_conditions":[9.5E-1,7.75E-1,7.1E-1,8E-1,7.5E-1,6.5E-1,5.2E-1,6.75E-1,6.75E-1,1.45E0,8E-1,1.15E0,9.75E-1,9.75E-1,5.766929E-2,-8.804305E-3,7.5E-1,6E-1,7.25E-1,9E-1,8.25E-1,8.5E-1,2.4951313E-2,1E0,8.7443115E-3,1.0671412E-2,2.1407565E-2,1.1452123E-2,3.6878113E-2,-7.4842325E-3,-2.8726868E-3,-6.2194034E-3,-2.706886E-3,8.8170695E-4,6.2940097E-3,-6.0034352E-3,-1.8937992E-4,-1.0409817E-3,8.04428E-3,4.538675E-3,1.270704E-2,2.0944846E-3,4.6988134E-3],"split_indices":[3,3,1,0,0,0,5,3,3,5,0,3,3,3,0,0,0,3,3,3,3,3,0,3,0,0,0,0,0,0,0,0,0,0,0,0,0,0,0,0,0,0,0],"split_type":[0,0,0,0,0,0,0,0,0,0,0,0,0,0,0,0,0,0,0,0,0,0,0,0,0,0,0,0,0,0,0,0,0,0,0,0,0,0,0,0,0,0,0],"sum_hessian":[3.89E2,3.27E2,6.2E1,2.43E2,8.4E1,4.6E1,1.6E1,1.96E2,4.7E1,5.9E1,2.5E1,2.2E1,2.4E1,8E0,8E0,1.28E2,6.8E1,3.8E1,9E0,5.2E1,7E0,1.8E1,7E0,1.8E1,4E0,4E0,2E1,2E0,6E0,5.3E1,1.5E1,2.7E1,1.1E1,3E0,6E0,3.9E1,1.3E1,3E0,4E0,1E1,8E0,7E0,1.1E1],"tree_param":{"num_deleted":"0","num_feature":"7","num_nodes":"43","size_leaf_vector":"1"}},{"base_weights":[1.4012848E-2,-8.524601E-2,4.0719903E-1,-1.425813E-1,1.19787585E-2,2.16913E-1,8.500903E-1,-1.5591621E-1,-5.765519E-2,-8.099829E-2,2.9360983E-1,1.0614316E-1,3.4016195E-1,6.8515915E-1,6.1534535E-2,-1.2671436E-1,-8.256031E-3,-9.946291E-2,-2.2293102E-2,-1.1544767E-1,2.5871534E-2,2.016505E-1,2.073723E-2,7.373847E-2,9.706997E-3,8.673879E-3,1.850797E-2,1.2911387E-2,3.9089616E-2,-7.1737315E-3,-2.6014966E-3,-5.6404592E-3,-8.6861354E-4,-2.1438212E-3,1.129453E-3,-6.6320538E-3,-3.3345886E-3,-1.7032305E-3,4.71766E-3,5.9072394E-3,1.5085138E-2,8.056092E-4,4.197383E-3],"categories":[],"categories_nodes":[],"categories_segments":[],"categories_sizes":[],"default_left":[0,0,0,0,0,0,0,0,0,0,0,0,0,0,0,0,0,0,0,0,0,0,0,0,0,0,0,0,0,0,0,0,0,0,0,0,0,0,0,0,0,0,0],"id":10,"left_children":[1,3,5,7,9,11,13,15,17,19,21,23,25,27,-1,29,-1,31,33,35,37,39,-1,41,-1,-1,-1,-1,-1,-1,-1,-1,-1,-1,-1,-1,-1,-1,-1,-1,-1,-1,-1],"loss_changes":[1.5684625E1,1.7910938E0,6.641963E0,2.1977139E-1,3.1660087E0,7.557256E-1,6.633301E-1,2.5846004E-2,4.0656492E-2,3.3801234E-1,2.50551E-1,7.693273E-2,7.078838E-2,5.819788E-1,0E0,5.0114572E-2,0E0,1.2283117E-2,1.6673543E-2,4.8995316E-2,9.761822E-2,1.2309921E-1,0E0,1.33553445E-2,0E0,0E0,0E0,0E0,0E0,0E0,0E0,0E0,0E0,0E0,0E0,0E0,0E0,0E0,0E0,0E0,0E0,0E0,0E0],"parents":[2147483647,0,0,1,1,2,2,3,3,4,4,5,5,6,6,7,7,8,8,9,9,10,10,11,11,12,12,13,13,15,15,17,17,18,18,19,19,20,20,21,21,23,23],"right_children":[2,4,6,8,10,12,14,16,18,20,22,24,26,28,-1,30,-1,32,34,36,38,40,-1,42,-1,-1,-1,-1,-1,-1,-1,-1,-1,-1,-1,-1,-1,-1,-1,-1,-1,-1,-1],"split_conditions":[9.5E-1,7.5E-1,7E-1,8.5E-1,7.75E-1,6.5E-1,2.5E0,6.23E0,6.5E-1,7E-1,8.5E-1,1.15E0,9.75E-1,9.75E-1,6.1534535E-2,7.5E-1,-8.256031E-3,9.25E-1,9E-1,6.25E-1,8E-1,8E-1,2.073723E-2,9.75E-1,9.706997E-3,8.673879E-3,1.850797E-2,1.2911387E-2,3.9089616E-2,-7.1737315E-3,-2.6014966E-3,-5.6404592E-3,-8.6861354E-4,-2.1438212E-3,1.129453E-3,-6.6320538E-3,-3.3345886E-3,-1.7032305E-3,4.71766E-3,5.9072394E-3,1.5085138E-2,8.056092E-4,4.197383E-3],"split_indices":[3,0,0,3,3,0,5,6,0,3,3,3,3,3,0,3,0,3,3,3,0,0,0,3,0,0,0,0,0,0,0,0,0,0,0,0,0,0,0,0,0,0,0],"split_type":[0,0,0,0,0,0,0,0,0,0,0,0,0,0,0,0,0,0,0,0,0,0,0,0,0,0,0,0,0,0,0,0,0,0,0,0,0,0,0,0,0,0,0],"sum_hessian":[4E2,3.2E2,8E1,2.01E2,1.19E2,5.7E1,2.3E1,1.73E2,2.8E1,9E1,2.9E1,3.1E1,2.6E1,1.8E1,5E0,4.5E1,1.28E2,1.2E1,1.6E1,6.8E1,2.2E1,1.8E1,1.1E1,2.4E1,7E0,5E0,2.1E1,4E0,1.4E1,3.6E1,9E0,1E1,2E0,1.1E1,5E0,4.9E1,1.9E1,1.2E1,1E1,1.1E1,7E0,4E0,2E1],"tree_param":{"num_deleted":"0","num_feature":"7","num_nodes":"43","size_leaf_vector":"1"}},{"base_weights":[3.1688085E-3,-8.2973234E-2,3.7007037E-1,-1.3142744E-1,5.5332934E-3,1.8281437E-1,8.6071426E-1,-1.4485277E-1,4.698536E-3,-7.971541E-2,2.554117E-1,8.651579E-2,3.2140726E-1,6.87408E-1,5.89706E-2,-7.911532E-3,-1.1793421E-1,-5.7118643E-2,1.2766168E-1,-1.0810697E-1,2.2221247E-2,1.4568362E-1,1.7115928E-2,6.339114E-2,1.0629274E-2,8.312467E-3,1.776353E-2,1.05069345E-2,3.7028972E-2,-7.2082016E-3,-3.638217E-3,-4.800498E-3,-7.974457E-4,2.0349503E-3,9.1354465E-3,-2.1647452E-3,-5.917913E-3,-3.1004597E-3,3.617302E-3,1.6616989E-3,9.177656E-3,-7.693469E-6,4.0965755E-3],"categories":[],"categories_nodes":[],"categories_segments":[],"categories_sizes":[],"default_left":[0,0,0,0,0,0,0,0,0,0,0,0,0,0,0,0,0,0,0,0,0,0,0,0,0,0,0,0,0,0,0,0,0,0,0,0,0,0,0,0,0,0,0],"id":11,"left_children":[1,3,5,7,9,11,13,15,17,19,21,23,25,27,-1,-1,29,31,33,35,37,39,-1,41,-1,-1,-1,-1,-1,-1,-1,-1,-1,-1,-1,-1,-1,-1,-1,-1,-1,-1,-1],"loss_changes":[1.2799388E1,1.4073596E0,6.917102E0,3.881185E-1,2.512672E0,7.329322E-1,3.4914207E-1,5.0840855E-2,1.5931654E-1,2.5708663E-1,2.3621345E-1,8.8560075E-2,6.178212E-2,2.5040913E-1,0E0,0E0,7.007629E-2,2.088477E-2,2.6073322E-2,4.0719748E-2,8.8926785E-2,5.7776034E-2,0E0,3.6535203E-2,0E0,0E0,0E0,0E0,0E0,0E0,0E0,0E0,0E0,0E0,0E0,0E0,0E0,0E0,0E0,0E0,0E0,0E0,0E0],"parents":[2147483647,0,0,1,1,2,2,3,3,4,4,5,5,6,6,7,7,8,8,9,9,10,10,11,11,12,12,13,13,16,16,17,17,18,18,19,19,20,20,21,21,23,23],"right_children":[2,4,6,8,10,12,14,16,18,20,22,24,26,28,-1,-1,30,32,34,36,38,40,-1,42,-1,-1,-1,-1,-1,-1,-1,-1,-1,-1,-1,-1,-1,-1,-1,-1,-1,-1,-1],"split_conditions":[2.39E0,7.5E-1,7E-1,2.255E0,1.849E0,6.5E-1,7.95E-1,1.824E0,7.54E-1,1.675E0,8.34E-1,3.093E0,2.51E0,2.444E0,5.89706E-2,-7.911532E-3,7.54E-1,6.5E-1,7.1E-1,6.02E0,8.34E-1,1.981E0,1.7115928E-2,2.516E0,1.0629274E-2,8.312467E-3,1.776353E-2,1.05069345E-2,3.7028972E-2,-7.2082016E-3,-3.638217E-3,-4.800498E-3,-7.974457E-4,2.0349503E-3,9.1354465E-3,-2.1647452E-3,-5.917913E-3,-3.1004597E-3,3.617302E-3,1.6616989E-3,9.177656E-3,-7.693469E-6,4.0965755E-3],"split_indices":[4,0,0,4,4,0,2,4,2,4,2,4,4,4,0,0,2,0,1,6,2,4,0,4,0,0,0,0,0,0,0,0,0,0,0,0,0,0,0,0,0,0,0],"split_type":[0,0,0,0,0,0,0,0,0,0,0,0,0,0,0,0,0,0,0,0,0,0,0,0,0,0,0,0,0,0,0,0,0,0,0,0,0,0,0,0,0,0,0],"sum_hessian":[4.03E2,3.27E2,7.6E1,2.11E2,1.16E2,5.6E1,2E1,1.92E2,1.9E1,8.7E1,2.9E1,3.4E1,2.2E1,1.5E1,5E0,1.25E2,6.7E1,1.3E1,6E0,6.8E1,1.9E1,1.4E1,1.5E1,3E1,4E0,5E0,1.7E1,2E0,1.3E1,4.1E1,2.6E1,6E0,7E0,3E0,3E0,1E1,5.8E1,7E0,1.2E1,4E0,1E1,7E0,2.3E1],"tree_param":{"num_deleted":"0","num_feature":"7","num_nodes":"43","size_leaf_vector":"1"}},{"base_weights":[3.9436296E-3,-7.931577E-2,3.650561E-1,-1.1772154E-1,4.1842233E-2,1.9190659E-1,7.929141E-1,-2.0459665E-2,-1.3391152E-1,-5.4766696E-2,2.7524474E-1,9.5363215E-2,3.0861235E-1,6.3722885E-1,5.8183055E-2,-9.21754E-2,8.608739E-2,-7.486701E-3,-1.0541816E-1,-7.685017E-2,1.1079621E-1,1.9880979E-1,2.1077592E-2,6.3579E-2,8.939773E-3,8.6034695E-3,1.6365873E-2,1.07215E-2,3.5625607E-2,-2.4256238E-3,-5.275849E-3,2.4817996E-3,8.695987E-3,-6.3332557E-3,-7.5848325E-4,-4.9988353E-3,-5.1203754E-4,2.029953E-3,9.54297E-3,4.297588E-3,1.1346183E-2,1.960664E-3,4.440501E-3],"categories":[],"categories_nodes":[],"categories_segments":[],"categories_sizes":[],"default_left":[0,0,0,0,0,0,0,0,0,0,0,0,0,0,0,0,0,0,0,0,0,0,0,0,0,0,0,0,0,0,0,0,0,0,0,0,0,0,0,0,0,0,0],"id":12,"left_children":[1,3,5,7,9,11,13,15,17,19,21,23,25,27,-1,29,31,-1,33,35,37,39,-1,41,-1,-1,-1,-1,-1,-1,-1,-1,-1,-1,-1,-1,-1,-1,-1,-1,-1,-1,-1],"loss_changes":[1.1874962E1,1.4985921E0,5.3300056E0,3.8147926E-1,1.7738781E0,5.789969E-1,4.7059727E-1,2.8301474E-1,7.843995E-2,2.1326213E-1,1.7339969E-1,7.083905E-2,4.9757957E-3,3.8832092E-1,0E0,7.6968074E-3,3.939151E-2,0E0,1.4764392E-1,7.5998366E-2,3.159274E-2,3.4434438E-2,0E0,1.1271983E-2,0E0,0E0,0E0,0E0,0E0,0E0,0E0,0E0,0E0,0E0,0E0,0E0,0E0,0E0,0E0,0E0,0E0,0E0,0E0],"parents":[2147483647,0,0,1,1,2,2,3,3,4,4,5,5,6,6,7,7,8,8,9,9,10,10,11,11,12,12,13,13,15,15,16,16,18,18,19,19,20,20,21,21,23,23],"right_children":[2,4,6,8,10,12,14,16,18,20,22,24,26,28,-1,30,32,-1,34,36,38,40,-1,42,-1,-1,-1,-1,-1,-1,-1,-1,-1,-1,-1,-1,-1,-1,-1,-1,-1,-1,-1],"split_conditions":[9.5E-1,8E-1,7E-1,6.028E0,7.5E-1,6.5E-1,2.5E0,6.5E-1,6.75E-1,1.45E0,8E-1,1.15E0,9.75E-1,9.75E-1,5.8183055E-2,1.37E0,7.75E-1,-7.486701E-3,2.5E0,9E-1,8.75E-1,8.25E-1,2.1077592E-2,-5.5E-1,8.939773E-3,8.6034695E-3,1.6365873E-2,1.07215E-2,3.5625607E-2,-2.4256238E-3,-5.275849E-3,2.4817996E-3,8.695987E-3,-6.3332557E-3,-7.5848325E-4,-4.9988353E-3,-5.1203754E-4,2.029953E-3,9.54297E-3,4.297588E-3,1.1346183E-2,1.960664E-3,4.440501E-3],"split_indices":[3,3,0,6,0,0,5,3,3,5,0,3,3,3,0,5,3,0,5,3,3,3,0,5,0,0,0,0,0,0,0,0,0,0,0,0,0,0,0,0,0,0,0],"split_type":[0,0,0,0,0,0,0,0,0,0,0,0,0,0,0,0,0,0,0,0,0,0,0,0,0,0,0,0,0,0,0,0,0,0,0,0,0,0,0,0,0,0,0],"sum_hessian":[3.93E2,3.2E2,7.3E1,2.43E2,7.7E1,5.3E1,2E1,3.5E1,2.08E2,5.5E1,2.2E1,3E1,2.3E1,1.6E1,4E0,2.1E1,1.4E1,1.31E2,7.7E1,4.9E1,6E0,1.6E1,6E0,2.3E1,7E0,4E0,1.9E1,3E0,1.3E1,6E0,1.5E1,1.1E1,3E0,6.2E1,1.5E1,3.6E1,1.3E1,4E0,2E0,4E0,1.2E1,1.3E1,1E1],"tree_param":{"num_deleted":"0","num_feature":"7","num_nodes":"43","size_leaf_vector":"1"}},{"base_weights":[-1.619098E-2,-7.792869E-2,3.1300485E-1,-1.1074979E-1,3.4893554E-2,1.2554358E-1,5.294577E-1,-1.2987183E-1,-3.089931E-2,-7.282648E-2,2.3656234E-1,6.2327173E-2,1.927666E-1,1.1971354E-2,5.8209795E-1,-1.4017512E-1,-9.165898E-2,-8.061045E-2,1.0268721E-1,-9.309451E-2,-9.538517E-3,1.3301452E-1,1.5181489E-2,2.8135478E-2,4.5143077E-3,4.889741E-3,2.1627429E-1,1.6919008E-2,3.3378787E-2,-7.633608E-3,-6.4249686E-3,-6.0523087E-3,-3.8747376E-4,-5.252446E-3,-1.3706287E-3,3.0327905E-3,6.8026744E-3,-5.7966695E-3,-2.3646278E-3,-3.1289954E-3,1.5717421E-3,3.6954226E-3,8.990127E-3,2.833143E-4,1.8477831E-3,6.7342795E-3,1.2765557E-2],"categories":[],"categories_nodes":[],"categories_segments":[],"categories_sizes":[],"default_left":[0,0,0,0,0,0,0,0,0,0,0,0,0,0,0,0,0,0,0,0,0,0,0,0,0,0,0,0,0,0,0,0,0,0,0,0,0,0,0,0,0,0,0,0,0,0,0],"id":13,"left_children":[1,3,5,7,9,11,13,15,17,19,21,23,25,-1,27,29,31,33,35,37,39,41,-1,43,-1,-1,45,-1,-1,-1,-1,-1,-1,-1,-1,-1,-1,-1,-1,-1,-1,-1,-1,-1,-1,-1,-1],"loss_changes":[7.8490543E0,1.2073232E0,2.4086976E0,3.8076687E-1,1.6247869E0,1.3247174E-1,2.8811407E-1,6.7076445E-2,3.403145E-1,6.1965406E-2,1.4017475E-1,1.5623085E-2,1.4570594E-2,0E0,2.5325203E-1,3.4358501E-3,1.1249173E-1,4.5223117E-2,1.1381596E-2,3.3221632E-2,3.0219879E-2,1.9896537E-2,0E0,1.7724242E-3,0E0,0E0,3.832817E-3,0E0,0E0,0E0,0E0,0E0,0E0,0E0,0E0,0E0,0E0,0E0,0E0,0E0,0E0,0E0,0E0,0E0,0E0,0E0,0E0],"parents":[2147483647,0,0,1,1,2,2,3,3,4,4,5,5,6,6,7,7,8,8,9,9,10,10,11,11,12,12,14,14,15,15,16,16,17,17,18,18,19,19,20,20,21,21,23,23,26,26],"right_children":[2,4,6,8,10,12,14,16,18,20,22,24,26,-1,28,30,32,34,36,38,40,42,-1,44,-1,-1,46,-1,-1,-1,-1,-1,-1,-1,-1,-1,-1,-1,-1,-1,-1,-1,-1,-1,-1,-1,-1],"split_conditions":[9.5E-1,8E-1,7.5E-1,8E-1,7.95E-1,7.15E-1,9.75E-1,7.25E-1,7E-1,9E-1,8.3E-1,1.05E0,1E0,1.1971354E-2,7E-1,6.64E-1,7.95E-1,6E-1,7.5E-1,7.5E-1,7.15E-1,2.113E0,1.5181489E-2,9.75E-1,4.5143077E-3,4.889741E-3,6.5E-1,1.6919008E-2,3.3378787E-2,-7.633608E-3,-6.4249686E-3,-6.0523087E-3,-3.8747376E-4,-5.252446E-3,-1.3706287E-3,3.0327905E-3,6.8026744E-3,-5.7966695E-3,-2.3646278E-3,-3.1289954E-3,1.5717421E-3,3.6954226E-3,8.990127E-3,2.833143E-4,1.8477831E-3,6.7342795E-3,1.2765557E-2],"split_indices":[3,3,2,0,2,2,3,3,3,3,2,3,3,0,0,1,2,3,3,2,2,4,0,3,0,0,0,0,0,0,0,0,0,0,0,0,0,0,0,0,0,0,0,0,0,0,0],"split_type":[0,0,0,0,0,0,0,0,0,0,0,0,0,0,0,0,0,0,0,0,0,0,0,0,0,0,0,0,0,0,0,0,0,0,0,0,0,0,0,0,0,0,0,0,0,0,0],"sum_hessian":[3.84E2,3.24E2,6E1,2.51E2,7.3E1,3.3E1,2.7E1,2.02E2,4.9E1,4.8E1,2.5E1,1.8E1,1.5E1,5E0,2.2E1,1.57E2,4.5E1,3.6E1,1.3E1,3.6E1,1.2E1,1.1E1,1.4E1,9E0,9E0,4E0,1.1E1,7E0,1.5E1,7E1,8.7E1,3.3E1,1.2E1,2.4E1,1.2E1,7E0,6E0,2.3E1,1.3E1,5E0,7E0,6E0,5E0,3E0,6E0,5E0,6E0],"tree_param":{"num_deleted":"0","num_feature":"7","num_nodes":"47","size_leaf_vector":"1"}},{"base_weights":[7.6670004E-3,-4.358408E-2,5.7113033E-2,-5.163722E-2,-1.1879828E-2,1.15751736E-1,8.435591E-3,-5.6589752E-2,-1.8872323E-3,-1.2807349E-3,5.732043E-5,7.4994884E-2,1.3419837E-2,-5.2936003E-3,4.5570796E-3,-3.1029563E-3,-2.422858E-3,1.4149629E-3,5.698934E-3,-2.8409163E-2,1.3639332E-2,-2.6317001E-3,-8.840018E-4,1.0507356E-3,2.1216525E-4],"categories":[],"categories_nodes":[],"categories_segments":[],"categories_sizes":[],"default_left":[0,0,0,0,0,0,0,0,0,0,0,0,0,0,0,0,0,0,0,0,0,0,0,0,0],"id":14,"left_children":[1,3,5,7,9,11,13,15,-1,-1,-1,17,-1,19,-1,-1,-1,-1,-1,21,23,-1,-1,-1,-1],"loss_changes":[1.011086E0,4.942903E-2,5.784631E-1,8.597344E-3,7.3648244E-3,5.5223393E-1,1.2765695E-1,2.0190775E-3,0E0,0E0,0E0,1.3148206E-1,0E0,4.2839084E-2,0E0,0E0,0E0,0E0,0E0,1.0505527E-2,3.652988E-3,0E0,0E0,0E0,0E0],"parents":[2147483647,0,0,1,1,2,2,3,3,4,4,5,5,6,6,7,7,11,11,13,13,19,19,20,20],"right_children":[2,4,6,8,10,12,14,16,-1,-1,-1,18,-1,20,-1,-1,-1,-1,-1,22,24,-1,-1,-1,-1],"split_conditions":[7E-1,7.5E-1,7.5E-1,7.46E-1,6.62E-1,7.95E-1,3.51E0,-5.5E-1,-1.8872323E-3,-1.2807349E-3,5.732043E-5,-5.1E-1,1.3419837E-2,8.34E-1,4.5570796E-3,-3.1029563E-3,-2.422858E-3,1.4149629E-3,5.698934E-3,8.28E-1,8.7E-1,-2.6317001E-3,-8.840018E-4,1.0507356E-3,2.1216525E-4],"split_indices":[0,2,0,2,1,2,5,5,0,0,0,5,0,2,0,0,0,0,0,2,2,0,0,0,0],"split_type":[0,0,0,0,0,0,0,0,0,0,0,0,0,0,0,0,0,0,0,0,0,0,0,0,0],"sum_hessian":[3.97E2,1.95E2,2.02E2,1.55E2,4E1,9.1E1,1.11E2,1.12E2,4.3E1,1.9E1,2.1E1,7.3E1,1.8E1,9.6E1,1.5E1,6.3E1,4.9E1,3.4E1,3.9E1,4.3E1,5.3E1,1.2E1,3.1E1,2.9E1,2.4E1],"tree_param":{"num_deleted":"0","num_feature":"7","num_nodes":"25","size_leaf_vector":"1"}},{"base_weights":[5.7437164E-3,-6.617653E-2,3.2930505E-1,-1.0266438E-1,4.2759128E-2,1.690079E-1,6.859346E-1,-1.3124332E-1,-4.991085E-2,2.7994382E-1,-4.3483857E-2,7.717746E-2,2.965191E-1,1.7991155E-2,7.384137E-1,-7.0916386E-3,-1.1677199E-1,-9.13438E-2,5.081043E-2,1.8676795E-1,1.9688958E-2,-7.842273E-2,5.9683148E-2,6.643719E-2,7.7637113E-3,3.869621E-3,1.577559E-2,4.0832933E-2,4.4581392E-1,-4.4825E-3,-6.383657E-3,-5.273724E-3,-2.2062967E-3,-2.1520656E-4,4.5757364E-3,6.372139E-3,1.2231386E-2,-4.914199E-3,-1.0222715E-3,3.7299693E-4,7.273925E-3,1.6522069E-3,3.7780125E-3,6.33834E-3,2.4213498E-2],"categories":[],"categories_nodes":[],"categories_segments":[],"categories_sizes":[],"default_left":[0,0,0,0,0,0,0,0,0,0,0,0,0,0,0,0,0,0,0,0,0,0,0,0,0,0,0,0,0,0,0,0,0,0,0,0,0,0,0,0,0,0,0,0,0],"id":15,"left_children":[1,3,5,7,9,11,13,15,17,19,21,23,25,-1,27,-1,29,31,33,35,-1,37,39,41,-1,-1,-1,-1,43,-1,-1,-1,-1,-1,-1,-1,-1,-1,-1,-1,-1,-1,-1,-1,-1],"loss_changes":[9.213684E0,1.292234E0,4.000075E0,3.5980606E-1,1.6895252E0,5.742953E-1,1.1081028E-1,7.497072E-3,3.677078E-1,1.5980232E-1,2.245574E-1,1.5686214E-2,6.29797E-2,0E0,4.802227E-2,0E0,9.8416805E-3,3.671354E-2,5.8722265E-2,1.6879499E-2,0E0,5.0959617E-2,7.0602894E-2,6.337926E-3,0E0,0E0,0E0,0E0,1.2226462E-2,0E0,0E0,0E0,0E0,0E0,0E0,0E0,0E0,0E0,0E0,0E0,0E0,0E0,0E0,0E0,0E0],"parents":[2147483647,0,0,1,1,2,2,3,3,4,4,5,5,6,6,7,7,8,8,9,9,10,10,11,11,12,12,14,14,16,16,17,17,18,18,19,19,21,21,22,22,23,23,28,28],"right_children":[2,4,6,8,10,12,14,16,18,20,22,24,26,-1,28,-1,30,32,34,36,-1,38,40,42,-1,-1,-1,-1,44,-1,-1,-1,-1,-1,-1,-1,-1,-1,-1,-1,-1,-1,-1,-1,-1],"split_conditions":[9.5E-1,8E-1,7E-1,7.5E-1,6.104E0,6.5E-1,7.1E-1,6.5E-1,7E-1,8E-1,7.1E-1,1.2E0,9.75E-1,1.7991155E-2,6.23E0,-7.0916386E-3,6.23E0,6.25E-1,8E-1,8.75E-1,1.9688958E-2,9E-1,8.75E-1,1E0,7.7637113E-3,3.869621E-3,1.577559E-2,4.0832933E-2,9.75E-1,-4.4825E-3,-6.383657E-3,-5.273724E-3,-2.2062967E-3,-2.1520656E-4,4.5757364E-3,6.372139E-3,1.2231386E-2,-4.914199E-3,-1.0222715E-3,3.7299693E-4,7.273925E-3,1.6522069E-3,3.7780125E-3,6.33834E-3,2.4213498E-2],"split_indices":[3,3,0,0,6,0,1,3,3,0,1,3,3,0,6,0,6,3,0,3,0,3,3,3,0,0,0,0,3,0,0,0,0,0,0,0,0,0,0,0,0,0,0,0,0],"split_type":[0,0,0,0,0,0,0,0,0,0,0,0,0,0,0,0,0,0,0,0,0,0,0,0,0,0,0,0,0,0,0,0,0,0,0,0,0,0,0,0,0,0,0,0,0],"sum_hessian":[3.94E2,3.23E2,7.1E1,2.42E2,8.1E1,5E1,2.1E1,1.56E2,8.6E1,2.1E1,6E1,3E1,2E1,4E0,1.7E1,8.5E1,7.1E1,6.1E1,2.5E1,1.3E1,8E0,4.5E1,1.5E1,2.8E1,2E0,2E0,1.8E1,1.2E1,5E0,2.3E1,4.8E1,4.6E1,1.5E1,1.1E1,1.4E1,8E0,5E0,3.3E1,1.2E1,1E1,5E0,7E0,2.1E1,1E0,4E0],"tree_param":{"num_deleted":"0","num_feature":"7","num_nodes":"45","size_leaf_vector":"1"}},{"base_weights":[-4.990888E-4,-7.194523E-2,3.2300007E-1,-1.1120465E-1,6.156945E-3,1.6196296E-1,6.590373E-1,-4.687637E-2,-1.24167256E-1,-6.1095316E-2,1.6493025E-1,8.541545E-2,1.4118037E-2,5.046614E-1,1.0123255E0,-7.218811E-2,2.1814996E-2,-6.5438696E-3,-9.900357E-2,-8.530596E-2,3.079617E-2,1.1667804E-1,2.642426E-1,6.937005E-2,9.019536E-3,1.4489598E-2,3.0752588E-2,7.529894E-2,3.0619955E-2,-1.7486047E-3,-4.3988056E-3,-9.6949044E-4,3.7569364E-3,-2.3397475E-3,-5.4955813E-3,-4.795526E-3,-8.681752E-5,-6.948059E-4,7.041844E-3,5.7608786E-4,6.85666E-3,5.8772503E-3,1.5516042E-2,1.3629817E-3,4.205702E-3],"categories":[],"categories_nodes":[],"categories_segments":[],"categories_sizes":[],"default_left":[0,0,0,0,0,0,0,0,0,0,0,0,0,0,0,0,0,0,0,0,0,0,0,0,0,0,0,0,0,0,0,0,0,0,0,0,0,0,0,0,0,0,0,0,0],"id":16,"left_children":[1,3,5,7,9,11,13,15,17,19,21,23,-1,25,27,29,31,-1,33,35,37,39,41,43,-1,-1,-1,-1,-1,-1,-1,-1,-1,-1,-1,-1,-1,-1,-1,-1,-1,-1,-1,-1,-1],"loss_changes":[9.199006E0,1.0002811E0,3.7895026E0,1.751275E-1,1.1846417E0,4.366895E-1,7.435188E-1,6.764532E-2,1.743579E-2,1.7615774E-1,1.2730598E-1,3.6251575E-2,0E0,2.4871445E-1,2.6229048E-1,1.3375148E-2,2.5626056E-2,0E0,1.8775463E-2,5.4779083E-2,8.5562594E-2,5.0043702E-2,3.1119108E-2,1.5712485E-2,0E0,0E0,0E0,0E0,0E0,0E0,0E0,0E0,0E0,0E0,0E0,0E0,0E0,0E0,0E0,0E0,0E0,0E0,0E0,0E0,0E0],"parents":[2147483647,0,0,1,1,2,2,3,3,4,4,5,5,6,6,7,7,8,8,9,9,10,10,11,11,13,13,14,14,15,15,16,16,18,18,19,19,20,20,21,21,22,22,23,23],"right_children":[2,4,6,8,10,12,14,16,18,20,22,24,-1,26,28,30,32,-1,34,36,38,40,42,44,-1,-1,-1,-1,-1,-1,-1,-1,-1,-1,-1,-1,-1,-1,-1,-1,-1,-1,-1,-1,-1],"split_conditions":[9.5E-1,7.5E-1,7.09E-1,6.028E0,7.57E-1,6.61E-1,2.5E0,6.5E-1,6.75E-1,9E-1,8.5E-1,1.2E0,1.4118037E-2,1.025E0,9.75E-1,1.37E0,1.5E0,-6.5438696E-3,6.104E0,1.45E0,7.1E-1,5E-1,5E-1,1E0,9.019536E-3,1.4489598E-2,3.0752588E-2,7.529894E-2,3.0619955E-2,-1.7486047E-3,-4.3988056E-3,-9.6949044E-4,3.7569364E-3,-2.3397475E-3,-5.4955813E-3,-4.795526E-3,-8.681752E-5,-6.948059E-4,7.041844E-3,5.7608786E-4,6.85666E-3,5.8772503E-3,1.5516042E-2,1.3629817E-3,4.205702E-3],"split_indices":[3,3,1,6,1,1,5,3,3,3,3,3,0,3,3,5,5,0,6,5,1,5,5,3,0,0,0,0,0,0,0,0,0,0,0,0,0,0,0,0,0,0,0,0,0],"split_type":[0,0,0,0,0,0,0,0,0,0,0,0,0,0,0,0,0,0,0,0,0,0,0,0,0,0,0,0,0,0,0,0,0,0,0,0,0,0,0,0,0,0,0,0,0],"sum_hessian":[3.96E2,3.25E2,7.1E1,2.16E2,1.09E2,4.9E1,2.2E1,3.7E1,1.79E2,7.7E1,3.2E1,3.1E1,1.8E1,1.7E1,5E0,2.7E1,1E1,1.38E2,4.1E1,6.1E1,1.6E1,2.3E1,9E0,2.8E1,3E0,7E0,1E1,1E0,4E0,9E0,1.8E1,6E0,4E0,8E0,3.3E1,5.4E1,7E0,1.2E1,4E0,4E0,1.9E1,3E0,6E0,8E0,2E1],"tree_param":{"num_deleted":"0","num_feature":"7","num_nodes":"45","size_leaf_vector":"1"}},{"base_weights":[3.4928746E-3,-6.234198E-2,2.838869E-1,-1.1031286E-1,9.723202E-3,1.437684E-1,5.1084965E-1,-1.21505596E-1,-6.740152E-2,-7.262809E-2,1.4623187E-1,7.899857E-2,2.4187872E-1,1.3876811E-2,6.19039E-1,-6.369871E-3,-5.187337E-3,-8.965602E-2,-2.4243541E-2,-9.8605044E-2,-4.659511E-3,8.150885E-2,2.78674E-1,6.282613E-2,8.622803E-3,7.6873973E-3,1.3536385E-2,1.514974E-2,3.2968007E-2,-1.9153893E-3,-5.0959415E-3,-1.9430332E-3,-4.2784083E-4,-5.657529E-3,-3.063101E-3,-2.247067E-3,3.3735172E-3,-1.9853811E-4,6.042623E-3,8.253713E-3,2.0057438E-2,1.904744E-3,4.4215904E-3],"categories":[],"categories_nodes":[],"categories_segments":[],"categories_sizes":[],"default_left":[0,0,0,0,0,0,0,0,0,0,0,0,0,0,0,0,0,0,0,0,0,0,0,0,0,0,0,0,0,0,0,0,0,0,0,0,0,0,0,0,0,0,0],"id":17,"left_children":[1,3,5,7,9,11,13,15,17,19,21,23,25,-1,27,-1,-1,29,31,33,35,37,39,41,-1,-1,-1,-1,-1,-1,-1,-1,-1,-1,-1,-1,-1,-1,-1,-1,-1,-1,-1],"loss_changes":[7.4754167E0,1.1349784E0,2.3752851E0,8.6428404E-2,1.4945203E0,2.9226685E-1,5.602131E-1,3.0009747E-3,3.9126173E-2,1.4608675E-1,4.0588832E-1,3.6019787E-2,6.6833496E-3,0E0,4.2338848E-2,0E0,0E0,1.3726562E-2,3.336193E-3,2.5658667E-2,7.276474E-2,1.1818758E-1,1.5639031E-1,1.4362492E-2,0E0,0E0,0E0,0E0,0E0,0E0,0E0,0E0,0E0,0E0,0E0,0E0,0E0,0E0,0E0,0E0,0E0,0E0,0E0],"parents":[2147483647,0,0,1,1,2,2,3,3,4,4,5,5,6,6,7,7,8,8,9,9,10,10,11,11,12,12,14,14,17,17,18,18,19,19,20,20,21,21,22,22,23,23],"right_children":[2,4,6,8,10,12,14,16,18,20,22,24,26,-1,28,-1,-1,30,32,34,36,38,40,42,-1,-1,-1,-1,-1,-1,-1,-1,-1,-1,-1,-1,-1,-1,-1,-1,-1,-1,-1],"split_conditions":[9.5E-1,7.25E-1,7.54E-1,8E-1,7.95E-1,6.5E-1,1.025E0,6.5E-1,6E-1,8.75E-1,8.5E-1,1.2E0,1.025E0,1.3876811E-2,7E-1,-6.369871E-3,-5.187337E-3,6.02E0,6.5E-1,7.54E-1,7.5E-1,8.3E-1,8.34E-1,7.12E-1,8.622803E-3,7.6873973E-3,1.3536385E-2,1.514974E-2,3.2968007E-2,-1.9153893E-3,-5.0959415E-3,-1.9430332E-3,-4.2784083E-4,-5.657529E-3,-3.063101E-3,-2.247067E-3,3.3735172E-3,-1.9853811E-4,6.042623E-3,8.253713E-3,2.0057438E-2,1.904744E-3,4.4215904E-3],"split_indices":[3,3,2,0,2,0,3,3,3,3,3,3,3,0,0,0,0,6,3,2,2,2,2,2,0,0,0,0,0,0,0,0,0,0,0,0,0,0,0,0,0,0,0],"split_type":[0,0,0,0,0,0,0,0,0,0,0,0,0,0,0,0,0,0,0,0,0,0,0,0,0,0,0,0,0,0,0,0,0,0,0,0,0,0,0,0,0,0,0],"sum_hessian":[4.03E2,3.27E2,7.6E1,1.96E2,1.31E2,4.8E1,2.8E1,1.54E2,4.2E1,8.2E1,4.9E1,3E1,1.8E1,1E1,1.8E1,1.11E2,4.3E1,2.7E1,1.5E1,5.9E1,2.3E1,3.4E1,1.5E1,2.7E1,3E0,6E0,1.2E1,3E0,1.5E1,6E0,2.1E1,7E0,8E0,4.1E1,1.8E1,1.5E1,8E0,1.1E1,2.3E1,9E0,6E0,1.5E1,1.2E1],"tree_param":{"num_deleted":"0","num_feature":"7","num_nodes":"43","size_leaf_vector":"1"}},{"base_weights":[-4.6460526E-3,-6.33174E-2,2.721419E-1,-9.521139E-2,1.7829832E-2,1.3220868E-1,4.877209E-1,-1.1066958E-1,-3.3655114E-2,-5.371271E-2,2.0598894E-1,7.2909035E-2,2.1512525E-1,1.2216085E-2,5.823249E-1,-6.0608806E-3,-9.450168E-2,-7.300241E-2,6.430654E-2,-8.4279455E-2,3.29074E-3,1.1933885E-1,2.89915E-1,5.4572687E-2,6.2467377E-3,1.01950005E-1,1.2105305E-2,1.4581625E-2,3.105106E-2,-5.4469034E-3,-3.2133781E-3,-4.308909E-3,-1.8809343E-3,6.333756E-4,5.0726193E-3,-5.029969E-3,-1.3828957E-3,-1.6592324E-3,2.126576E-3,2.629914E-3,7.5286343E-3,9.053025E-3,2.030496E-2,1.0908967E-3,3.311003E-3,1.4576406E-3,5.643055E-3],"categories":[],"categories_nodes":[],"categories_segments":[],"categories_sizes":[],"default_left":[0,0,0,0,0,0,0,0,0,0,0,0,0,0,0,0,0,0,0,0,0,0,0,0,0,0,0,0,0,0,0,0,0,0,0,0,0,0,0,0,0,0,0,0,0,0,0],"id":18,"left_children":[1,3,5,7,9,11,13,15,17,19,21,23,25,-1,27,-1,29,31,33,35,37,39,41,43,-1,45,-1,-1,-1,-1,-1,-1,-1,-1,-1,-1,-1,-1,-1,-1,-1,-1,-1,-1,-1,-1,-1],"loss_changes":[6.2207294E0,8.195398E-1,1.956686E0,2.1227694E-1,1.2225887E0,1.9082618E-1,4.5641518E-1,1.9412518E-2,1.858573E-1,1.15276396E-1,1.472069E-1,1.7984971E-2,2.7227879E-2,0E0,2.1367073E-2,0E0,2.6170611E-2,1.2609154E-2,2.5569309E-2,3.6952168E-2,3.5763133E-2,2.1264032E-2,7.823753E-2,6.56686E-3,0E0,6.812662E-4,0E0,0E0,0E0,0E0,0E0,0E0,0E0,0E0,0E0,0E0,0E0,0E0,0E0,0E0,0E0,0E0,0E0,0E0,0E0,0E0,0E0],"parents":[2147483647,0,0,1,1,2,2,3,3,4,4,5,5,6,6,7,7,8,8,9,9,10,10,11,11,12,12,14,14,16,16,17,17,18,18,19,19,20,20,21,21,22,22,23,23,25,25],"right_children":[2,4,6,8,10,12,14,16,18,20,22,24,26,-1,28,-1,30,32,34,36,38,40,42,44,-1,46,-1,-1,-1,-1,-1,-1,-1,-1,-1,-1,-1,-1,-1,-1,-1,-1,-1,-1,-1,-1,-1],"split_conditions":[9.5E-1,7.75E-1,7.54E-1,8E-1,8.28E-1,6.5E-1,1.025E0,6.5E-1,6.75E-1,7.54E-1,8E-1,1.15E0,9.75E-1,1.2216085E-2,7E-1,-6.0608806E-3,7.88E-1,6E-1,1.5E0,9E-1,8.25E-1,8.25E-1,8.25E-1,1E0,6.2467377E-3,-2.05E0,1.2105305E-2,1.4581625E-2,3.105106E-2,-5.4469034E-3,-3.2133781E-3,-4.308909E-3,-1.8809343E-3,6.333756E-4,5.0726193E-3,-5.029969E-3,-1.3828957E-3,-1.6592324E-3,2.126576E-3,2.629914E-3,7.5286343E-3,9.053025E-3,2.030496E-2,1.0908967E-3,3.311003E-3,1.4576406E-3,5.643055E-3],"split_indices":[3,3,2,0,2,0,3,3,3,2,0,3,3,0,0,0,2,3,5,3,3,3,3,3,0,5,0,0,0,0,0,0,0,0,0,0,0,0,0,0,0,0,0,0,0,0,0],"split_type":[0,0,0,0,0,0,0,0,0,0,0,0,0,0,0,0,0,0,0,0,0,0,0,0,0,0,0,0,0,0,0,0,0,0,0,0,0,0,0,0,0,0,0,0,0,0,0],"sum_hessian":[3.81E2,3.15E2,6.6E1,2.26E2,8.9E1,4.1E1,2.5E1,1.8E2,4.6E1,6.5E1,2.4E1,2.5E1,1.6E1,8E0,1.7E1,1.05E2,7.5E1,3.3E1,1.3E1,4.2E1,2.3E1,1.3E1,1.1E1,2E1,5E0,4E0,1.2E1,3E0,1.4E1,4.9E1,2.6E1,2.3E1,1E1,6E0,7E0,3.2E1,1E1,1.2E1,1.1E1,5E0,8E0,7E0,4E0,6E0,1.4E1,1E0,3E0],"tree_param":{"num_deleted":"0","num_feature":"7","num_nodes":"47","size_leaf_vector":"1"}},{"base_weights":[8.063974E-3,-5.279559E-2,3.048627E-1,-9.475349E-2,2.4590347E-2,1.4980686E-1,6.0816497E-1,-1.0763788E-1,-5.7629388E-2,-5.851858E-2,1.6845609E-1,7.265677E-2,2.4261162E-1,4.5574698E-1,9.3865514E-1,-5.861083E-3,-9.7307615E-2,-7.387295E-2,3.5406232E-2,-7.7167325E-2,2.5584502E-2,8.8232E-2,2.3737654E-1,5.6085225E-2,7.4889497E-3,1.4331771E-1,1.3746458E-2,7.427533E-3,2.55482E-2,7.276415E-2,2.7213652E-2,-5.041644E-3,-2.6488074E-3,-1.2096828E-3,-4.3154894E-3,5.2545493E-4,4.0848735E-3,-4.7319615E-3,-2.24728E-3,-9.855587E-4,3.6848031E-3,9.604335E-4,6.919939E-3,6.368992E-3,1.5921274E-2,3.303683E-4,3.3076932E-3,1.4211982E-3,7.8864675E-3],"categories":[],"categories_nodes":[],"categories_segments":[],"categories_sizes":[],"default_left":[0,0,0,0,0,0,0,0,0,0,0,0,0,0,0,0,0,0,0,0,0,0,0,0,0,0,0,0,0,0,0,0,0,0,0,0,0,0,0,0,0,0,0,0,0,0,0,0,0],"id":19,"left_children":[1,3,5,7,9,11,13,15,17,19,21,23,25,27,29,-1,31,33,35,37,39,41,43,45,-1,47,-1,-1,-1,-1,-1,-1,-1,-1,-1,-1,-1,-1,-1,-1,-1,-1,-1,-1,-1,-1,-1,-1,-1],"loss_changes":[7.006492E0,1.0478485E0,3.012794E0,9.376621E-2,1.372902E0,3.045678E-1,6.804085E-1,3.8398504E-3,8.7244436E-2,1.1646874E-1,2.1127725E-1,2.4828508E-2,2.4776459E-2,2.1245766E-1,4.3042135E-1,0E0,7.1606636E-3,2.7568817E-2,9.514104E-3,2.9524863E-2,3.196207E-2,7.005781E-2,1.5557146E-1,1.1020914E-2,0E0,7.1073472E-3,0E0,0E0,0E0,0E0,0E0,0E0,0E0,0E0,0E0,0E0,0E0,0E0,0E0,0E0,0E0,0E0,0E0,0E0,0E0,0E0,0E0,0E0,0E0],"parents":[2147483647,0,0,1,1,2,2,3,3,4,4,5,5,6,6,7,7,8,8,9,9,10,10,11,11,12,12,13,13,14,14,16,16,17,17,18,18,19,19,20,20,21,21,22,22,23,23,25,25],"right_children":[2,4,6,8,10,12,14,16,18,20,22,24,26,28,30,-1,32,34,36,38,40,42,44,46,-1,48,-1,-1,-1,-1,-1,-1,-1,-1,-1,-1,-1,-1,-1,-1,-1,-1,-1,-1,-1,-1,-1,-1,-1],"split_conditions":[9.5E-1,7.5E-1,7.09E-1,8.34E-1,7.95E-1,6.61E-1,7.95E-1,6.64E-1,7E-1,9E-1,8.34E-1,1.2E0,-1.5E0,9.75E-1,9.75E-1,-5.861083E-3,7.25E-1,1.37E0,3.51E0,7.5E-1,7.5E-1,8.25E-1,8E-1,1E0,7.4889497E-3,9.75E-1,1.3746458E-2,7.427533E-3,2.55482E-2,7.276415E-2,2.7213652E-2,-5.041644E-3,-2.6488074E-3,-1.2096828E-3,-4.3154894E-3,5.2545493E-4,4.0848735E-3,-4.7319615E-3,-2.24728E-3,-9.855587E-4,3.6848031E-3,9.604335E-4,6.919939E-3,6.368992E-3,1.5921274E-2,3.303683E-4,3.3076932E-3,1.4211982E-3,7.8864675E-3],"split_indices":[3,3,1,2,2,1,2,1,3,3,2,3,5,3,3,0,3,5,5,2,2,3,3,3,0,3,0,0,0,0,0,0,0,0,0,0,0,0,0,0,0,0,0,0,0,0,0,0,0],"split_type":[0,0,0,0,0,0,0,0,0,0,0,0,0,0,0,0,0,0,0,0,0,0,0,0,0,0,0,0,0,0,0,0,0,0,0,0,0,0,0,0,0,0,0,0,0,0,0,0,0],"sum_hessian":[3.86E2,3.21E2,6.5E1,2.08E2,1.13E2,4.4E1,2.1E1,1.53E2,5.5E1,7.2E1,4.1E1,2.5E1,1.9E1,1.6E1,5E0,7.4E1,7.9E1,4.7E1,8E0,5.9E1,1.3E1,2E1,2.1E1,2.2E1,3E0,6E0,1.3E1,3E0,1.3E1,1E0,4E0,7.2E1,7E0,1E1,3.7E1,6E0,2E0,3.7E1,2.2E1,7E0,6E0,9E0,1.1E1,1E1,1.1E1,4E0,1.8E1,1E0,5E0],"tree_param":{"num_deleted":"0","num_feature":"7","num_nodes":"49","size_leaf_vector":"1"}},{"base_weights":[3.1649794E-3,-5.598278E-2,2.7092892E-1,-8.699164E-2,2.8870622E-2,1.3133967E-1,6.2729406E-1,-9.835603E-2,-4.423207E-2,-5.4068483E-2,1.7570369E-1,7.0337184E-2,2.1410055E-1,4.730379E-1,9.083854E-1,-1.0902314E-1,-8.191494E-2,-6.2000338E-2,6.124343E-2,-7.306579E-2,9.499376E-3,1.2644225E-1,1.3571732E-2,5.7728995E-2,7.2081136E-3,1.1219255E-1,1.1873698E-2,1.2693792E-2,2.648268E-2,7.094505E-2,2.6125107E-2,-4.294827E-3,-5.6580994E-3,-4.861477E-3,-2.70853E-3,-4.0121037E-3,-1.5089918E-3,1.6733598E-3,4.032643E-3,-4.61111E-3,-2.15031E-3,-1.3197007E-3,3.969314E-3,4.203621E-3,1.1623903E-2,1.6651194E-3,3.9153504E-3,1.385668E-3,6.177286E-3],"categories":[],"categories_nodes":[],"categories_segments":[],"categories_sizes":[],"default_left":[0,0,0,0,0,0,0,0,0,0,0,0,0,0,0,0,0,0,0,0,0,0,0,0,0,0,0,0,0,0,0,0,0,0,0,0,0,0,0,0,0,0,0,0,0,0,0,0,0],"id":20,"left_children":[1,3,5,7,9,11,13,15,17,19,21,23,25,27,29,31,33,35,37,39,41,43,-1,45,-1,47,-1,-1,-1,-1,-1,-1,-1,-1,-1,-1,-1,-1,-1,-1,-1,-1,-1,-1,-1,-1,-1,-1,-1],"loss_changes":[6.3027096E0,8.602849E-1,3.4992332E0,1.1178827E-1,1.0811819E0,2.5251764E-1,4.3750095E-1,2.4040818E-2,1.01251185E-1,6.952831E-2,1.1658615E-1,2.1463275E-2,2.5759697E-2,5.16541E-2,4.4061708E-1,9.0432167E-4,2.7874649E-2,2.3699075E-2,1.6137436E-3,2.1370545E-2,3.7214015E-2,8.378759E-2,0E0,1.196906E-2,0E0,2.3307726E-3,0E0,0E0,0E0,0E0,0E0,0E0,0E0,0E0,0E0,0E0,0E0,0E0,0E0,0E0,0E0,0E0,0E0,0E0,0E0,0E0,0E0,0E0,0E0],"parents":[2147483647,0,0,1,1,2,2,3,3,4,4,5,5,6,6,7,7,8,8,9,9,10,10,11,11,12,12,13,13,14,14,15,15,16,16,17,17,18,18,19,19,20,20,21,21,23,23,25,25],"right_children":[2,4,6,8,10,12,14,16,18,20,22,24,26,28,30,32,34,36,38,40,42,44,-1,46,-1,48,-1,-1,-1,-1,-1,-1,-1,-1,-1,-1,-1,-1,-1,-1,-1,-1,-1,-1,-1,-1,-1,-1,-1],"split_conditions":[9.5E-1,7.75E-1,7E-1,8E-1,7.95E-1,6.5E-1,7.95E-1,6.5E-1,7.25E-1,9E-1,8E-1,1.2E0,9.75E-1,1.025E0,9.75E-1,-1.54E0,7.88E-1,5.75E-1,1.5E0,7.5E-1,7E-1,9E-1,1.3571732E-2,7.12E-1,7.2081136E-3,-2.05E0,1.1873698E-2,1.2693792E-2,2.648268E-2,7.094505E-2,2.6125107E-2,-4.294827E-3,-5.6580994E-3,-4.861477E-3,-2.70853E-3,-4.0121037E-3,-1.5089918E-3,1.6733598E-3,4.032643E-3,-4.61111E-3,-2.15031E-3,-1.3197007E-3,3.969314E-3,4.203621E-3,1.1623903E-2,1.6651194E-3,3.9153504E-3,1.385668E-3,6.177286E-3],"split_indices":[3,3,0,0,2,0,2,3,3,3,0,3,3,3,3,5,2,3,5,2,0,3,0,2,0,5,0,0,0,0,0,0,0,0,0,0,0,0,0,0,0,0,0,0,0,0,0,0,0],"split_type":[0,0,0,0,0,0,0,0,0,0,0,0,0,0,0,0,0,0,0,0,0,0,0,0,0,0,0,0,0,0,0,0,0,0,0,0,0,0,0,0,0,0,0,0,0,0,0,0,0],"sum_hessian":[3.96E2,3.25E2,7.1E1,2.38E2,8.7E1,5.2E1,1.9E1,1.87E2,5.1E1,5.6E1,3.1E1,3.1E1,2.1E1,1.4E1,5E0,1.1E2,7.7E1,4.4E1,7E0,4.3E1,1.3E1,2.2E1,9E0,2.8E1,3E0,5E0,1.6E1,4E0,1E1,1E0,4E0,2E1,9E1,4.8E1,2.9E1,2.7E1,1.7E1,4E0,3E0,2.5E1,1.8E1,9E0,4E0,1.7E1,5E0,1.4E1,1.4E1,1E0,4E0],"tree_param":{"num_deleted":"0","num_feature":"7","num_nodes":"49","size_leaf_vector":"1"}},{"base_weights":[3.5991105E-3,-5.3868674E-2,2.4798885E-1,-8.483935E-2,5.046205E-3,1.4717063E-1,3.0728275E-2,-9.79233E-2,-3.6819983E-2,1.531479E-1,-4.8183203E-2,7.107657E-2,2.3516446E-1,-5.2409684E-3,-8.224804E-2,-6.5855E-2,2.3704704E-2,2.1971424E-1,1.2049655E-1,-7.324247E-2,-1.5303466E-2,5.301514E-2,7.900263E-3,7.2016194E-3,1.3746919E-2,-2.0229032E-3,-4.340969E-3,-1.3038814E-3,-3.956707E-3,-2.4405048E-4,2.4663664E-3,4.798128E-3,1.3738637E-2,2.527821E-3,7.2551086E-3,-1.4056864E-3,-4.4643595E-3,2.328731E-3,-1.6218182E-3,1.4229255E-3,3.620016E-3],"categories":[],"categories_nodes":[],"categories_segments":[],"categories_sizes":[],"default_left":[0,0,0,0,0,0,0,0,0,0,0,0,0,0,0,0,0,0,0,0,0,0,0,0,0,0,0,0,0,0,0,0,0,0,0,0,0,0,0,0,0],"id":21,"left_children":[1,3,5,7,9,11,-1,13,15,17,19,21,23,-1,25,27,29,31,33,35,37,39,-1,-1,-1,-1,-1,-1,-1,-1,-1,-1,-1,-1,-1,-1,-1,-1,-1,-1,-1],"loss_changes":[5.2379265E0,5.5146754E-1,2.533544E0,1.20794415E-1,8.351326E-1,3.6494637E-1,0E0,8.134007E-3,7.888381E-2,3.43827E-2,6.314662E-2,4.186514E-2,5.4641485E-2,0E0,6.4213574E-3,1.378265E-2,1.1227382E-2,2.8140783E-2,2.8803498E-2,2.9349238E-2,3.8615994E-2,1.1268556E-2,0E0,0E0,0E0,0E0,0E0,0E0,0E0,0E0,0E0,0E0,0E0,0E0,0E0,0E0,0E0,0E0,0E0,0E0,0E0],"parents":[2147483647,0,0,1,1,2,2,3,3,4,4,5,5,7,7,8,8,9,9,10,10,11,11,12,12,14,14,15,15,16,16,17,17,18,18,19,19,20,20,21,21],"right_children":[2,4,6,8,10,12,-1,14,16,18,20,22,24,-1,26,28,30,32,34,36,38,40,-1,-1,-1,-1,-1,-1,-1,-1,-1,-1,-1,-1,-1,-1,-1,-1,-1,-1,-1],"split_conditions":[9.5E-1,7.5E-1,7.1E-1,8E-1,6.104E0,6.5E-1,3.0728275E-2,6.5E-1,6.5E-1,6.028E0,8.5E-1,1.2E0,1.025E0,-5.2409684E-3,6.104E0,6.02E0,6.025E0,7.75E-1,8E-1,6.23E0,6.23E0,6.504E0,7.900263E-3,7.2016194E-3,1.3746919E-2,-2.0229032E-3,-4.340969E-3,-1.3038814E-3,-3.956707E-3,-2.4405048E-4,2.4663664E-3,4.798128E-3,1.3738637E-2,2.527821E-3,7.2551086E-3,-1.4056864E-3,-4.4643595E-3,2.328731E-3,-1.6218182E-3,1.4229255E-3,3.620016E-3],"split_indices":[3,3,1,0,6,0,0,3,3,6,3,3,3,0,6,6,6,3,3,6,6,6,0,0,0,0,0,0,0,0,0,0,0,0,0,0,0,0,0,0,0],"split_type":[0,0,0,0,0,0,0,0,0,0,0,0,0,0,0,0,0,0,0,0,0,0,0,0,0,0,0,0,0,0,0,0,0,0,0,0,0,0,0,0,0],"sum_hessian":[3.71E2,3.01E2,7E1,1.97E2,1.04E2,5.6E1,1.4E1,1.54E2,4.3E1,2.7E1,7.7E1,3.1E1,2.5E1,1.03E2,5.1E1,2.9E1,1.4E1,7E0,2E1,4.3E1,3.4E1,2.7E1,4E0,9E0,1.6E1,6E0,4.5E1,8E0,2.1E1,7E0,7E0,3E0,4E0,6E0,1.4E1,1.2E1,3.1E1,7E0,2.7E1,1.3E1,1.4E1],"tree_param":{"num_deleted":"0","num_feature":"7","num_nodes":"41","size_leaf_vector":"1"}},{"base_weights":[-3.2100955E-3,-6.4913414E-2,1.4796418E-1,-1.6691878E-2,-8.933853E-2,5.599752E-2,2.4407995E-1,-6.0410637E-2,1.0114208E-1,-9.677974E-2,-7.5357415E-2,-9.371817E-3,1.15142316E-1,1.4043492E-1,3.9532784E-1,-7.691641E-2,-2.059246E-2,4.7942422E-2,1.4656156E-1,-3.7719186E-3,-5.057916E-3,-8.4177226E-2,-3.292453E-2,-4.469471E-2,2.9143555E-2,6.3745245E-2,9.3462905E-3,9.945827E-2,1.5412672E-2,1.2848303E-2,2.2307701E-2,-1.2271119E-3,-4.351527E-3,-1.8351999E-3,1.915263E-3,1.0651486E-3,4.3152473E-3,5.3755175E-3,1.0377461E-2,-4.7493433E-3,-3.444137E-3,-2.4100028E-3,6.747708E-4,-3.2024991E-3,-9.8763E-4,-1.4132858E-4,2.36094E-3,1.5067016E-3,3.8470055E-3,1.0816745E-3,7.07462E-3],"categories":[],"categories_nodes":[],"categories_segments":[],"categories_sizes":[],"default_left":[0,0,0,0,0,0,0,0,0,0,0,0,0,0,0,0,0,0,0,0,0,0,0,0,0,0,0,0,0,0,0,0,0,0,0,0,0,0,0,0,0,0,0,0,0,0,0,0,0,0,0],"id":22,"left_children":[1,3,5,7,9,11,13,15,17,19,21,23,25,27,29,31,33,35,37,-1,-1,39,41,43,45,47,-1,49,-1,-1,-1,-1,-1,-1,-1,-1,-1,-1,-1,-1,-1,-1,-1,-1,-1,-1,-1,-1,-1,-1,-1],"loss_changes":[3.5075877E0,3.1298578E-1,9.498317E-1,4.749015E-1,1.1121511E-2,2.2145571E-1,7.753148E-1,4.2450473E-2,5.3381026E-2,2.8345585E-3,2.1928996E-2,3.9395846E-2,9.8768234E-2,1.9627076E-1,3.3034086E-2,2.2760868E-2,2.1333542E-2,1.1446884E-2,8.647621E-3,0E0,0E0,2.3848116E-3,9.868636E-3,5.9762634E-3,8.223618E-3,6.107889E-3,0E0,8.853531E-2,0E0,0E0,0E0,0E0,0E0,0E0,0E0,0E0,0E0,0E0,0E0,0E0,0E0,0E0,0E0,0E0,0E0,0E0,0E0,0E0,0E0,0E0,0E0],"parents":[2147483647,0,0,1,1,2,2,3,3,4,4,5,5,6,6,7,7,8,8,9,9,10,10,11,11,12,12,13,13,14,14,15,15,16,16,17,17,18,18,21,21,22,22,23,23,24,24,25,25,27,27],"right_children":[2,4,6,8,10,12,14,16,18,20,22,24,26,28,30,32,34,36,38,-1,-1,40,42,44,46,48,-1,50,-1,-1,-1,-1,-1,-1,-1,-1,-1,-1,-1,-1,-1,-1,-1,-1,-1,-1,-1,-1,-1,-1,-1],"split_conditions":[8.5E-1,6.104E0,7.5E-1,7.25E-1,7E-1,1E0,9.75E-1,6.25E-1,1.54E0,6.224E0,7.9E-1,9.25E-1,6.61E-1,8.34E-1,6.64E-1,1.37E0,3.51E0,8E-1,3.51E0,-3.7719186E-3,-5.057916E-3,7.49E-1,8E-1,6.61E-1,7.12E-1,7.06E-1,9.3462905E-3,8.75E-1,1.5412672E-2,1.2848303E-2,2.2307701E-2,-1.2271119E-3,-4.351527E-3,-1.8351999E-3,1.915263E-3,1.0651486E-3,4.3152473E-3,5.3755175E-3,1.0377461E-2,-4.7493433E-3,-3.444137E-3,-2.4100028E-3,6.747708E-4,-3.2024991E-3,-9.8763E-4,-1.4132858E-4,2.36094E-3,1.5067016E-3,3.8470055E-3,1.0816745E-3,7.07462E-3],"split_indices":[3,6,2,3,3,3,3,3,5,6,2,3,1,2,1,5,5,3,5,0,0,2,3,1,2,2,0,3,0,0,0,0,0,0,0,0,0,0,0,0,0,0,0,0,0,0,0,0,0,0,0],"split_type":[0,0,0,0,0,0,0,0,0,0,0,0,0,0,0,0,0,0,0,0,0,0,0,0,0,0,0,0,0,0,0,0,0,0,0,0,0,0,0,0,0,0,0,0,0,0,0,0,0,0,0],"sum_hessian":[3.74E2,2.66E2,1.08E2,9E1,1.76E2,5.6E1,5.2E1,6.6E1,2.4E1,1.11E2,6.5E1,2.7E1,2.9E1,3.2E1,2E1,4.6E1,2E1,1.2E1,1.2E1,2.2E1,8.9E1,5.3E1,1.2E1,1.4E1,1.3E1,1.8E1,1.1E1,2.7E1,5E0,7E0,1.3E1,8E0,3.8E1,1.6E1,4E0,8E0,4E0,9E0,3E0,2.8E1,2.5E1,9E0,3E0,7E0,7E0,5E0,8E0,6E0,1.2E1,1E1,1.7E1],"tree_param":{"num_deleted":"0","num_feature":"7","num_nodes":"51","size_leaf_vector":"1"}},{"base_weights":[1.2243861E-2,-4.3590974E-2,2.5729895E-1,-7.664787E-2,2.083087E-2,1.8145241E-1,7.2457165E-1,-3.256242E-2,-8.5928574E-2,-5.34245E-2,1.395004E-1,1.03573345E-1,3.289627E-1,6.8226345E-2,5.018514E-1,-5.3689826E-2,2.609733E-2,-4.8418962E-3,-7.2108746E-2,-7.2568096E-2,-2.8942763E-3,6.4519435E-2,1.8154395E-1,5.4882247E-2,1.7085591E-1,9.204901E-3,1.9929634E-2,1.0897394E-2,2.7591562E-2,-1.2144557E-3,-3.2852849E-3,3.175372E-3,-2.1761826E-4,-3.9021429E-3,-1.3355989E-3,-4.280727E-3,-2.110326E-3,-1.4105503E-3,3.0439964E-3,-4.3731972E-4,5.2638873E-3,6.9006677E-3,1.4310044E-2,1.8137087E-3,6.475147E-3,3.7303627E-3,9.256592E-3],"categories":[],"categories_nodes":[],"categories_segments":[],"categories_sizes":[],"default_left":[0,0,0,0,0,0,0,0,0,0,0,0,0,0,0,0,0,0,0,0,0,0,0,0,0,0,0,0,0,0,0,0,0,0,0,0,0,0,0,0,0,0,0,0,0,0,0],"id":23,"left_children":[1,3,5,7,9,11,13,15,17,19,21,23,25,-1,27,29,31,-1,33,35,37,39,41,43,45,-1,-1,-1,-1,-1,-1,-1,-1,-1,-1,-1,-1,-1,-1,-1,-1,-1,-1,-1,-1,-1,-1],"loss_changes":[5.4568944E0,6.937121E-1,2.4911609E0,8.5168004E-2,9.8556805E-1,7.12646E-1,7.4052E-1,4.973497E-2,1.9702673E-2,6.6535756E-2,1.23842955E-1,1.347698E-1,1.4853215E-1,0E0,7.4346066E-3,8.649044E-3,1.2806799E-2,0E0,2.0005226E-2,1.6192049E-2,3.4008566E-2,5.1686056E-2,8.3506405E-2,3.2793157E-2,1.0920465E-2,0E0,0E0,0E0,0E0,0E0,0E0,0E0,0E0,0E0,0E0,0E0,0E0,0E0,0E0,0E0,0E0,0E0,0E0,0E0,0E0,0E0,0E0],"parents":[2147483647,0,0,1,1,2,2,3,3,4,4,5,5,6,6,7,7,8,8,9,9,10,10,11,11,12,12,14,14,15,15,16,16,18,18,19,19,20,20,21,21,22,22,23,23,24,24],"right_children":[2,4,6,8,10,12,14,16,18,20,22,24,26,-1,28,30,32,-1,34,36,38,40,42,44,46,-1,-1,-1,-1,-1,-1,-1,-1,-1,-1,-1,-1,-1,-1,-1,-1,-1,-1,-1,-1,-1,-1],"split_conditions":[9.5E-1,7.5E-1,7.9E-1,6.028E0,7.95E-1,7.54E-1,9.75E-1,6.5E-1,5.75E-1,8.75E-1,8E-1,6.5E-1,1.025E0,6.8226345E-2,1.025E0,6.02E0,8.69E-1,-4.8418962E-3,8.34E-1,7.54E-1,7.54E-1,8.34E-1,8E-1,1.15E0,9.75E-1,9.204901E-3,1.9929634E-2,1.0897394E-2,2.7591562E-2,-1.2144557E-3,-3.2852849E-3,3.175372E-3,-2.1761826E-4,-3.9021429E-3,-1.3355989E-3,-4.280727E-3,-2.110326E-3,-1.4105503E-3,3.0439964E-3,-4.3731972E-4,5.2638873E-3,6.9006677E-3,1.4310044E-2,1.8137087E-3,6.475147E-3,3.7303627E-3,9.256592E-3],"split_indices":[3,3,2,6,2,2,3,3,3,3,3,0,3,0,3,6,2,0,2,2,2,2,0,3,3,0,0,0,0,0,0,0,0,0,0,0,0,0,0,0,0,0,0,0,0,0,0],"split_type":[0,0,0,0,0,0,0,0,0,0,0,0,0,0,0,0,0,0,0,0,0,0,0,0,0,0,0,0,0,0,0,0,0,0,0,0,0,0,0,0,0,0,0,0,0,0,0],"sum_hessian":[3.97E2,3.24E2,7.3E1,2.14E2,1.1E2,6.4E1,9E0,3.8E1,1.76E2,6.8E1,4.2E1,4.3E1,2.1E1,1E0,8E0,2.8E1,1E1,9.5E1,8.1E1,4.9E1,1.9E1,1.6E1,2.6E1,2.6E1,1.7E1,8E0,1.3E1,2E0,6E0,9E0,1.9E1,4E0,6E0,7.1E1,1E1,3.3E1,1.6E1,1.4E1,5E0,6E0,1E1,2E1,6E0,2.2E1,4E0,3E0,1.4E1],"tree_param":{"num_deleted":"0","num_feature":"7","num_nodes":"47","size_leaf_vector":"1"}},{"base_weights":[5.89135E-3,-4.454096E-2,2.221419E-1,-7.519266E-2,1.0126382E-2,1.2398987E-1,5.315212E-1,-8.3712496E-2,-4.035533E-2,1.480892E-1,-4.0734958E-2,6.1047737E-2,2.0152998E-1,3.8051814E-1,8.480256E-1,-7.115284E-2,-4.478692E-3,-5.4676592E-2,2.9134758E-2,9.059102E-2,2.072144E-1,-5.950733E-2,1.1021991E-2,4.520486E-2,7.1947733E-3,6.3350587E-3,1.2397884E-2,1.5738586E-1,2.2701623E-2,6.652068E-2,1.9741258E-2,-3.7873783E-3,-2.2317362E-3,-1.1062727E-3,-3.2353755E-3,2.378849E-3,7.528926E-4,2.0596117E-3,6.299542E-3,4.6507413E-3,1.4775609E-2,-3.8102753E-3,-7.9740974E-4,-1.5543042E-3,3.654095E-3,1.1282905E-3,3.1801832E-3,8.639078E-3,2.3950755E-3],"categories":[],"categories_nodes":[],"categories_segments":[],"categories_sizes":[],"default_left":[0,0,0,0,0,0,0,0,0,0,0,0,0,0,0,0,0,0,0,0,0,0,0,0,0,0,0,0,0,0,0,0,0,0,0,0,0,0,0,0,0,0,0,0,0,0,0,0,0],"id":24,"left_children":[1,3,5,7,9,11,13,15,17,19,21,23,25,27,29,31,-1,33,35,37,39,41,43,45,-1,-1,-1,47,-1,-1,-1,-1,-1,-1,-1,-1,-1,-1,-1,-1,-1,-1,-1,-1,-1,-1,-1,-1,-1],"loss_changes":[4.3832064E0,5.4702234E-1,2.2419286E0,5.8654666E-2,8.3403534E-1,2.7564895E-1,5.375867E-1,5.92041E-3,4.4385977E-2,9.0015054E-2,8.518514E-2,3.8121805E-2,5.8910728E-2,1.5818977E-1,5.6781197E-1,3.6859512E-3,0E0,1.0322951E-2,1.360469E-3,2.62869E-2,1.2376654E-1,4.533559E-2,6.4989194E-2,1.10606775E-2,0E0,0E0,0E0,1.514554E-4,0E0,0E0,0E0,0E0,0E0,0E0,0E0,0E0,0E0,0E0,0E0,0E0,0E0,0E0,0E0,0E0,0E0,0E0,0E0,0E0,0E0],"parents":[2147483647,0,0,1,1,2,2,3,3,4,4,5,5,6,6,7,7,8,8,9,9,10,10,11,11,12,12,13,13,14,14,15,15,17,17,18,18,19,19,20,20,21,21,22,22,23,23,27,27],"right_children":[2,4,6,8,10,12,14,16,18,20,22,24,26,28,30,32,-1,34,36,38,40,42,44,46,-1,-1,-1,48,-1,-1,-1,-1,-1,-1,-1,-1,-1,-1,-1,-1,-1,-1,-1,-1,-1,-1,-1,-1,-1],"split_conditions":[9.5E-1,7.5E-1,7.1E-1,8E-1,6.104E0,6.5E-1,7.95E-1,6.224E0,6.75E-1,8E-1,7.1E-1,1.2E0,1.025E0,1.025E0,9.75E-1,7E-1,-4.478692E-3,6.02E0,8.69E-1,8.25E-1,6.025E0,8.75E-1,8.25E-1,7.12E-1,7.1947733E-3,6.3350587E-3,1.2397884E-2,7.88E-1,2.2701623E-2,6.652068E-2,1.9741258E-2,-3.7873783E-3,-2.2317362E-3,-1.1062727E-3,-3.2353755E-3,2.378849E-3,7.528926E-4,2.0596117E-3,6.299542E-3,4.6507413E-3,1.4775609E-2,-3.8102753E-3,-7.9740974E-4,-1.5543042E-3,3.654095E-3,1.1282905E-3,3.1801832E-3,8.639078E-3,2.3950755E-3],"split_indices":[3,3,1,0,6,0,2,6,3,0,1,3,3,3,3,3,0,6,2,3,6,3,3,2,0,0,0,2,0,0,0,0,0,0,0,0,0,0,0,0,0,0,0,0,0,0,0,0,0],"split_type":[0,0,0,0,0,0,0,0,0,0,0,0,0,0,0,0,0,0,0,0,0,0,0,0,0,0,0,0,0,0,0,0,0,0,0,0,0,0,0,0,0,0,0,0,0,0,0,0,0],"sum_hessian":[4E2,3.25E2,7.5E1,2.08E2,1.17E2,5.8E1,1.7E1,1.66E2,4.2E1,3.1E1,8.6E1,3.3E1,2.5E1,1.3E1,4E0,5.7E1,1.09E2,3.5E1,7E0,1.7E1,1.4E1,6.3E1,2.3E1,2.9E1,4E0,1.1E1,1.4E1,4E0,9E0,1E0,3E0,4.7E1,1E1,9E0,2.6E1,2E0,5E0,8E0,9E0,7E0,7E0,4.5E1,1.8E1,1.4E1,9E0,1.4E1,1.5E1,3E0,1E0],"tree_param":{"num_deleted":"0","num_feature":"7","num_nodes":"49","size_leaf_vector":"1"}},{"base_weights":[5.154644E-3,-4.002626E-2,2.0651458E-1,-6.86364E-2,8.467703E-3,1.0004488E-1,4.6031985E-1,-7.8828186E-2,-1.4053391E-2,-4.7038015E-2,1.3928767E-1,5.250175E-2,1.677275E-1,3.4563807E-1,8.613078E-1,-8.561803E-2,-6.863322E-2,-3.3656228E-3,2.3930624E-2,-6.840461E-2,-1.1296578E-2,1.0826855E-1,1.5497622E-2,3.5334203E-2,6.9069825E-3,7.157688E-2,1.8614078E-1,7.919657E-3,2.1303056E-2,6.485767E-2,1.4182075E-2,-4.3136287E-3,-1.8066773E-3,-3.7437421E-3,-2.4174596E-3,2.091212E-4,3.0004184E-3,-1.1614319E-3,-3.7959851E-3,-1.2160725E-3,2.568446E-3,3.0798502E-3,9.588453E-3,2.916044E-4,2.4500971E-3,4.043393E-3,8.6032454E-4,6.046048E-3,1.0985128E-2],"categories":[],"categories_nodes":[],"categories_segments":[],"categories_sizes":[],"default_left":[0,0,0,0,0,0,0,0,0,0,0,0,0,0,0,0,0,0,0,0,0,0,0,0,0,0,0,0,0,0,0,0,0,0,0,0,0,0,0,0,0,0,0,0,0,0,0,0,0],"id":25,"left_children":[1,3,5,7,9,11,13,15,17,19,21,23,25,27,29,31,33,-1,35,37,39,41,-1,43,-1,45,47,-1,-1,-1,-1,-1,-1,-1,-1,-1,-1,-1,-1,-1,-1,-1,-1,-1,-1,-1,-1,-1,-1],"loss_changes":[3.574535E0,4.4594282E-1,1.8995724E0,1.1126435E-1,8.7790257E-1,1.5852189E-1,6.68005E-1,5.8915615E-3,6.8369605E-2,6.4139456E-2,1.5702116E-1,4.2165115E-2,2.3855984E-2,2.0357347E-1,6.391666E-1,5.686283E-5,5.6220293E-3,0E0,1.3998427E-2,1.6230106E-2,2.8184302E-2,1.1289474E-1,0E0,1.1004578E-2,0E0,1.1343192E-3,1.06444955E-2,0E0,0E0,0E0,0E0,0E0,0E0,0E0,0E0,0E0,0E0,0E0,0E0,0E0,0E0,0E0,0E0,0E0,0E0,0E0,0E0,0E0,0E0],"parents":[2147483647,0,0,1,1,2,2,3,3,4,4,5,5,6,6,7,7,8,8,9,9,10,10,11,11,12,12,13,13,14,14,15,15,16,16,18,18,19,19,20,20,21,21,23,23,25,25,26,26],"right_children":[2,4,6,8,10,12,14,16,18,20,22,24,26,28,30,32,34,-1,36,38,40,42,-1,44,-1,46,48,-1,-1,-1,-1,-1,-1,-1,-1,-1,-1,-1,-1,-1,-1,-1,-1,-1,-1,-1,-1,-1,-1],"split_conditions":[2.39E0,7.5E-1,7E-1,2.139E0,1.783E0,6.5E-1,2.5E0,6.64E-1,6.5E-1,1.5E0,3.51E0,3.093E0,2.51E0,2.576E0,2.444E0,2.126E0,1.782E0,-3.3656228E-3,7.1E-1,6.02E0,3.51E0,2.041E0,1.5497622E-2,2.577E0,6.9069825E-3,6.62E-1,-1.5E0,7.919657E-3,2.1303056E-2,6.485767E-2,1.4182075E-2,-4.3136287E-3,-1.8066773E-3,-3.7437421E-3,-2.4174596E-3,2.091212E-4,3.0004184E-3,-1.1614319E-3,-3.7959851E-3,-1.2160725E-3,2.568446E-3,3.0798502E-3,9.588453E-3,2.916044E-4,2.4500971E-3,4.043393E-3,8.6032454E-4,6.046048E-3,1.0985128E-2],"split_indices":[4,0,0,4,4,0,5,1,0,4,5,4,4,4,4,4,4,0,1,6,5,4,0,4,0,1,5,0,0,0,0,0,0,0,0,0,0,0,0,0,0,0,0,0,0,0,0,0,0],"split_type":[0,0,0,0,0,0,0,0,0,0,0,0,0,0,0,0,0,0,0,0,0,0,0,0,0,0,0,0,0,0,0,0,0,0,0,0,0,0,0,0,0,0,0,0,0,0,0,0,0],"sum_hessian":[3.91E2,3.2E2,7.1E1,2.01E2,1.19E2,5.1E1,2E1,1.69E2,3.2E1,8.4E1,3.5E1,3.1E1,2E1,1.7E1,3E0,9.7E1,7.2E1,1.3E1,1.9E1,5.2E1,3.2E1,3.1E1,4E0,2.7E1,4E0,4E0,1.6E1,6E0,1.1E1,1E0,2E0,9.5E1,2E0,5.3E1,1.9E1,1.3E1,6E0,8E0,4.4E1,2.7E1,5E0,2.1E1,1E1,9E0,1.8E1,3E0,1E0,7E0,9E0],"tree_param":{"num_deleted":"0","num_feature":"7","num_nodes":"49","size_leaf_vector":"1"}},{"base_weights":[7.5098304E-3,-3.9214227E-2,2.0219702E-1,-6.489424E-2,7.350785E-3,1.3287964E-1,6.060212E-1,-7.252845E-2,1.9294318E-2,-4.5837034E-2,1.3023257E-1,5.3498216E-2,2.1304542E-1,3.4504732E-1,7.659916E-1,-4.0500495E-3,-6.262291E-2,6.1070262E-3,-9.417625E-3,-6.807863E-2,-2.013894E-2,9.904413E-2,1.4877719E-2,3.9011847E-2,6.6307033E-3,9.089141E-2,2.3682441E-1,2.1372081E-3,1.9847957E-2,6.323623E-2,2.0665007E-2,-3.4821138E-3,-1.0973689E-3,-2.4215556E-3,4.5859625E-4,-1.2122836E-3,-3.7964105E-3,-2.486992E-3,-1.7127096E-4,3.0144558E-3,7.7691074E-3,6.209016E-5,2.4013494E-3,8.3881617E-4,5.0223935E-3,3.5541337E-3,1.2362022E-2],"categories":[],"categories_nodes":[],"categories_segments":[],"categories_sizes":[],"default_left":[0,0,0,0,0,0,0,0,0,0,0,0,0,0,0,0,0,0,0,0,0,0,0,0,0,0,0,0,0,0,0,0,0,0,0,0,0,0,0,0,0,0,0,0,0,0,0],"id":26,"left_children":[1,3,5,7,9,11,13,15,17,19,21,23,25,27,29,-1,31,-1,33,35,37,39,-1,41,-1,43,45,-1,-1,-1,-1,-1,-1,-1,-1,-1,-1,-1,-1,-1,-1,-1,-1,-1,-1,-1,-1],"loss_changes":[3.6192694E0,3.843256E-1,2.074859E0,1.3444102E-1,7.575881E-1,4.149686E-1,1.9492579E-1,1.08731985E-2,5.4302737E-2,4.4925854E-2,1.5317672E-1,3.4940034E-2,7.4329734E-2,7.7190876E-2,5.326822E-1,0E0,2.4739027E-2,0E0,1.1322853E-2,1.2954101E-2,1.9124294E-2,5.8316946E-2,0E0,1.0495927E-2,0E0,3.272798E-3,2.9037595E-2,0E0,0E0,0E0,0E0,0E0,0E0,0E0,0E0,0E0,0E0,0E0,0E0,0E0,0E0,0E0,0E0,0E0,0E0,0E0,0E0],"parents":[2147483647,0,0,1,1,2,2,3,3,4,4,5,5,6,6,7,7,8,8,9,9,10,10,11,11,12,12,13,13,14,14,16,16,18,18,19,19,20,20,21,21,23,23,25,25,26,26],"right_children":[2,4,6,8,10,12,14,16,18,20,22,24,26,28,30,-1,32,-1,34,36,38,40,-1,42,-1,44,46,-1,-1,-1,-1,-1,-1,-1,-1,-1,-1,-1,-1,-1,-1,-1,-1,-1,-1,-1,-1],"split_conditions":[2.39E0,7.5E-1,1.45E0,2.255E0,1.783E0,6.5E-1,2.5E0,6.62E-1,6.23E0,1.38E0,3.51E0,3.093E0,2.51E0,2.444E0,2.444E0,-4.0500495E-3,2.013E0,6.1070262E-3,6.5E-1,6.02E0,8E-1,2.041E0,1.4877719E-2,2.516E0,6.6307033E-3,-2.05E0,-2.05E0,2.1372081E-3,1.9847957E-2,6.323623E-2,2.0665007E-2,-3.4821138E-3,-1.0973689E-3,-2.4215556E-3,4.5859625E-4,-1.2122836E-3,-3.7964105E-3,-2.486992E-3,-1.7127096E-4,3.0144558E-3,7.7691074E-3,6.209016E-5,2.4013494E-3,8.3881617E-4,5.0223935E-3,3.5541337E-3,1.2362022E-2],"split_indices":[4,0,5,4,4,0,5,1,6,4,5,4,4,4,4,0,4,0,0,6,0,4,0,4,0,5,5,0,0,0,0,0,0,0,0,0,0,0,0,0,0,0,0,0,0,0,0],"split_type":[0,0,0,0,0,0,0,0,0,0,0,0,0,0,0,0,0,0,0,0,0,0,0,0,0,0,0,0,0,0,0,0,0,0,0,0,0,0,0,0,0,0,0,0,0,0,0],"sum_hessian":[3.96E2,3.2E2,7.6E1,2.06E2,1.14E2,6.6E1,1E1,1.89E2,1.7E1,8E1,3.4E1,3.4E1,3.2E1,5E0,5E0,9.8E1,9.1E1,3E0,1.4E1,4.2E1,3.8E1,3E1,4E0,3E1,4E0,6E0,2.6E1,1E0,4E0,1E0,4E0,7.7E1,1.4E1,4E0,1E1,7E0,3.5E1,1.3E1,2.5E1,1.9E1,1.1E1,6E0,2.4E1,1E0,5E0,2E0,2.4E1],"tree_param":{"num_deleted":"0","num_feature":"7","num_nodes":"47","size_leaf_vector":"1"}},{"base_weights":[4.735997E-3,-3.0575512E-2,2.0982638E-1,-6.111585E-2,2.8912058E-2,9.943122E-2,3.6207658E-1,-7.078867E-2,-2.7105797E-2,-8.657467E-3,1.7956658E-1,4.0956877E-2,6.823189E-3,9.688999E-3,3.961662E-1,-7.379719E-2,-5.1787112E-2,-4.8676286E-2,2.3121916E-2,-3.889771E-2,4.2566303E-2,1.1909612E-1,2.3470742E-1,3.3171874E-2,3.7486732E-3,1.2774979E-2,2.2071775E-2,-3.99636E-3,-3.3674892E-3,-3.145168E-3,-1.1282678E-3,-3.0277155E-3,-1.1501646E-3,4.4657226E-4,1.8097978E-3,-2.7104989E-3,1.2796414E-3,-9.219193E-5,5.0951373E-3,3.6297888E-3,6.9542187E-3,7.422426E-3,1.5426419E-2,6.115258E-4,1.7821447E-3],"categories":[],"categories_nodes":[],"categories_segments":[],"categories_sizes":[],"default_left":[0,0,0,0,0,0,0,0,0,0,0,0,0,0,0,0,0,0,0,0,0,0,0,0,0,0,0,0,0,0,0,0,0,0,0,0,0,0,0,0,0,0,0,0,0],"id":27,"left_children":[1,3,5,7,9,11,13,15,17,19,21,23,-1,-1,25,27,29,31,33,35,37,39,41,43,-1,-1,-1,-1,-1,-1,-1,-1,-1,-1,-1,-1,-1,-1,-1,-1,-1,-1,-1,-1,-1],"loss_changes":[2.859784E0,6.140187E-1,9.3884397E-1,7.144213E-2,6.5245676E-1,7.0201814E-2,6.09231E-2,6.0681105E-3,5.6380745E-2,1.4571454E-1,4.873824E-2,1.485277E-3,0E0,0E0,8.20303E-3,4.2676926E-4,7.3511377E-3,9.585045E-3,2.645146E-3,5.964967E-2,9.241778E-2,1.9860417E-3,2.4244308E-2,2.8852094E-4,0E0,0E0,0E0,0E0,0E0,0E0,0E0,0E0,0E0,0E0,0E0,0E0,0E0,0E0,0E0,0E0,0E0,0E0,0E0,0E0,0E0],"parents":[2147483647,0,0,1,1,2,2,3,3,4,4,5,5,6,6,7,7,8,8,9,9,10,10,11,11,14,14,15,15,16,16,17,17,18,18,19,19,20,20,21,21,22,22,23,23],"right_children":[2,4,6,8,10,12,14,16,18,20,22,24,-1,-1,26,28,30,32,34,36,38,40,42,44,-1,-1,-1,-1,-1,-1,-1,-1,-1,-1,-1,-1,-1,-1,-1,-1,-1,-1,-1,-1,-1],"split_conditions":[1E0,7.75E-1,7.54E-1,8.34E-1,8.3E-1,7.15E-1,1.025E0,7.25E-1,6.75E-1,9E-1,8.5E-1,1.2E0,6.823189E-3,9.688999E-3,7.1E-1,6.64E-1,7.9E-1,6E-1,7.25E-1,7.9E-1,7.5E-1,8E-1,8E-1,1.025E0,3.7486732E-3,1.2774979E-2,2.2071775E-2,-3.99636E-3,-3.3674892E-3,-3.145168E-3,-1.1282678E-3,-3.0277155E-3,-1.1501646E-3,4.4657226E-4,1.8097978E-3,-2.7104989E-3,1.2796414E-3,-9.219193E-5,5.0951373E-3,3.6297888E-3,6.9542187E-3,7.422426E-3,1.5426419E-2,6.115258E-4,1.7821447E-3],"split_indices":[3,3,2,2,2,2,3,3,3,3,3,3,0,0,1,1,2,3,3,2,2,0,0,3,0,0,0,0,0,0,0,0,0,0,0,0,0,0,0,0,0,0,0,0,0],"split_type":[0,0,0,0,0,0,0,0,0,0,0,0,0,0,0,0,0,0,0,0,0,0,0,0,0,0,0,0,0,0,0,0,0,0,0,0,0,0,0,0,0,0,0,0,0],"sum_hessian":[3.93E2,3.36E2,5.7E1,2.22E2,1.14E2,3.4E1,2.3E1,1.72E2,5E1,9.2E1,2.2E1,1.4E1,2E1,5E0,1.8E1,1.46E2,2.6E1,3.5E1,1.5E1,5.8E1,3.4E1,1.2E1,1E1,1.3E1,1E0,6E0,1.2E1,6.9E1,7.7E1,1.8E1,8E0,2.3E1,1.2E1,8E0,7E0,4.7E1,1.1E1,2E1,1.4E1,5E0,7E0,6E0,4E0,2E0,1.1E1],"tree_param":{"num_deleted":"0","num_feature":"7","num_nodes":"45","size_leaf_vector":"1"}},{"base_weights":[1.0412525E-2,-3.494245E-2,1.9935451E-1,-5.789363E-2,2.0266617E-2,1.0572333E-1,4.6091726E-1,-6.74474E-2,-1.775511E-2,-3.2848325E-2,1.21053725E-1,5.603364E-2,1.8448673E-1,3.232861E-1,7.2817564E-1,-7.5102255E-2,-5.593419E-2,-5.435133E-2,3.0707732E-2,-4.6969727E-2,8.12546E-3,9.316663E-2,1.4997177E-2,3.7895683E-2,5.060828E-3,8.007209E-2,2.0324154E-1,1.5936166E-1,1.9465607E-2,6.1527938E-2,1.9079363E-2,-2.7354273E-3,-3.9173267E-3,-2.9167451E-3,1.2312457E-4,-7.873974E-4,-3.2572474E-3,4.059463E-3,4.2339702E-4,-2.9682894E-3,-9.620998E-4,-9.797689E-4,2.5262998E-3,1.284699E-3,5.826711E-3,7.1643316E-4,2.7337705E-3,8.20148E-4,4.5944317E-3,4.767075E-3,1.0923273E-2,3.5731418E-3,9.272269E-3],"categories":[],"categories_nodes":[],"categories_segments":[],"categories_sizes":[],"default_left":[0,0,0,0,0,0,0,0,0,0,0,0,0,0,0,0,0,0,0,0,0,0,0,0,0,0,0,0,0,0,0,0,0,0,0,0,0,0,0,0,0,0,0,0,0,0,0,0,0,0,0,0,0],"id":28,"left_children":[1,3,5,7,9,11,13,15,17,19,21,23,25,27,29,31,33,35,37,39,41,43,-1,45,-1,47,49,51,-1,-1,-1,-1,-1,-1,-1,-1,-1,-1,-1,-1,-1,-1,-1,-1,-1,-1,-1,-1,-1,-1,-1,-1,-1],"loss_changes":[3.4090412E0,4.0791667E-1,1.8370335E0,8.585113E-2,5.1254004E-1,2.1665877E-1,5.002527E-1,1.1927366E-2,8.147906E-2,3.6833912E-2,1.3668299E-1,2.6486784E-2,2.6808083E-2,1.0030782E-1,5.751555E-1,2.7931333E-3,1.093857E-2,9.807527E-3,2.1766467E-2,1.5012272E-2,2.0971509E-2,4.430598E-2,0E0,1.0289121E-2,0E0,2.254501E-3,8.739114E-3,5.0391257E-4,0E0,0E0,0E0,0E0,0E0,0E0,0E0,0E0,0E0,0E0,0E0,0E0,0E0,0E0,0E0,0E0,0E0,0E0,0E0,0E0,0E0,0E0,0E0,0E0,0E0],"parents":[2147483647,0,0,1,1,2,2,3,3,4,4,5,5,6,6,7,7,8,8,9,9,10,10,11,11,12,12,13,13,14,14,15,15,16,16,17,17,18,18,19,19,20,20,21,21,23,23,25,25,26,26,27,27],"right_children":[2,4,6,8,10,12,14,16,18,20,22,24,26,28,30,32,34,36,38,40,42,44,-1,46,-1,48,50,52,-1,-1,-1,-1,-1,-1,-1,-1,-1,-1,-1,-1,-1,-1,-1,-1,-1,-1,-1,-1,-1,-1,-1,-1,-1],"split_conditions":[9.5E-1,7.75E-1,7.1E-1,8.05E-1,7.95E-1,7.46E-1,7.95E-1,6.5E-1,6.5E-1,9E-1,3.51E0,1.15E0,-2.05E0,1.025E0,9.75E-1,-1.54E0,8.34E-1,1.37E0,8.69E-1,3.8E-1,7.5E-1,8E-1,1.4997177E-2,7.12E-1,5.060828E-3,9.75E-1,9.75E-1,9.75E-1,1.9465607E-2,6.1527938E-2,1.9079363E-2,-2.7354273E-3,-3.9173267E-3,-2.9167451E-3,1.2312457E-4,-7.873974E-4,-3.2572474E-3,4.059463E-3,4.2339702E-4,-2.9682894E-3,-9.620998E-4,-9.797689E-4,2.5262998E-3,1.284699E-3,5.826711E-3,7.1643316E-4,2.7337705E-3,8.20148E-4,4.5944317E-3,4.767075E-3,1.0923273E-2,3.5731418E-3,9.272269E-3],"split_indices":[3,3,1,1,2,2,2,3,3,3,5,3,5,3,3,5,2,5,2,5,2,3,0,2,0,3,3,3,0,0,0,0,0,0,0,0,0,0,0,0,0,0,0,0,0,0,0,0,0,0,0,0,0],"split_type":[0,0,0,0,0,0,0,0,0,0,0,0,0,0,0,0,0,0,0,0,0,0,0,0,0,0,0,0,0,0,0,0,0,0,0,0,0,0,0,0,0,0,0,0,0,0,0,0,0,0,0,0,0],"sum_hessian":[3.96E2,3.2E2,7.6E1,2.26E2,9.4E1,5.7E1,1.9E1,1.82E2,4.4E1,6.2E1,3.2E1,3.6E1,2.1E1,1.4E1,5E0,1.06E2,7.6E1,2.5E1,1.9E1,4.6E1,1.6E1,2.9E1,3E0,2.7E1,9E0,4E0,1.7E1,5E0,9E0,1E0,4E0,1.7E1,8.9E1,7.3E1,3E0,6E0,1.9E1,5E0,1.4E1,3.1E1,1.5E1,1E1,6E0,8E0,2.1E1,1.2E1,1.5E1,1E0,3E0,3E0,1.4E1,2E0,3E0],"tree_param":{"num_deleted":"0","num_feature":"7","num_nodes":"53","size_leaf_vector":"1"}},{"base_weights":[2.9121892E-4,-2.9432233E-2,1.840309E-1,-5.3387884E-2,3.5724167E-2,1.01978116E-1,3.470295E-1,-6.2718034E-2,-2.0859698E-2,1.673836E-1,-5.5748676E-3,5.9280768E-2,1.5123479E-1,9.3212165E-3,1.8980034E-2,-6.774974E-2,-4.5165624E-2,-4.075076E-2,2.8339908E-2,1.0742496E-1,1.210272E-2,-2.2808328E-2,6.0283944E-2,4.4337858E-2,5.771971E-3,4.4047604E-3,8.8832965E-3,-2.5821347E-3,-3.5301836E-3,6.5569504E-4,-2.7981154E-3,-2.5929569E-3,-7.811619E-4,3.9902033E-4,2.51234E-3,2.8330632E-3,7.504709E-3,-2.525958E-3,3.8482132E-4,7.007194E-4,4.478658E-3,1.076083E-3,2.9487468E-3],"categories":[],"categories_nodes":[],"categories_segments":[],"categories_sizes":[],"default_left":[0,0,0,0,0,0,0,0,0,0,0,0,0,0,0,0,0,0,0,0,0,0,0,0,0,0,0,0,0,0,0,0,0,0,0,0,0,0,0,0,0,0,0],"id":29,"left_children":[1,3,5,7,9,11,13,15,17,19,21,23,25,-1,-1,27,29,31,33,35,-1,37,39,41,-1,-1,-1,-1,-1,-1,-1,-1,-1,-1,-1,-1,-1,-1,-1,-1,-1,-1,-1],"loss_changes":[2.1571991E0,5.32601E-1,7.002075E-1,7.426137E-2,5.011746E-1,7.095361E-2,2.3392916E-2,1.3985515E-2,5.693692E-2,7.2494805E-2,8.195822E-2,1.3343491E-2,1.2718946E-2,0E0,0E0,3.1571388E-3,2.9678248E-2,1.0633953E-2,7.1812375E-3,2.1820128E-2,0E0,4.8571598E-2,1.9072667E-2,5.0760508E-3,0E0,0E0,0E0,0E0,0E0,0E0,0E0,0E0,0E0,0E0,0E0,0E0,0E0,0E0,0E0,0E0,0E0,0E0,0E0],"parents":[2147483647,0,0,1,1,2,2,3,3,4,4,5,5,6,6,7,7,8,8,9,9,10,10,11,11,12,12,15,15,16,16,17,17,18,18,19,19,21,21,22,22,23,23],"right_children":[2,4,6,8,10,12,14,16,18,20,22,24,26,-1,-1,28,30,32,34,36,-1,38,40,42,-1,-1,-1,-1,-1,-1,-1,-1,-1,-1,-1,-1,-1,-1,-1,-1,-1,-1,-1],"split_conditions":[1E0,8E-1,7E-1,8E-1,6.104E0,6.5E-1,1.025E0,7.25E-1,6.75E-1,8E-1,9.5E-1,1.2E0,-1.5E0,9.3212165E-3,1.8980034E-2,-1.54E0,6.104E0,5.75E-1,1.5E0,8.75E-1,1.210272E-2,-5E-1,6.5E-1,-5.5E-1,5.771971E-3,4.4047604E-3,8.8832965E-3,-2.5821347E-3,-3.5301836E-3,6.5569504E-4,-2.7981154E-3,-2.5929569E-3,-7.811619E-4,3.9902033E-4,2.51234E-3,2.8330632E-3,7.504709E-3,-2.525958E-3,3.8482132E-4,7.007194E-4,4.478658E-3,1.076083E-3,2.9487468E-3],"split_indices":[3,3,0,0,6,0,3,3,3,0,3,3,5,0,0,5,6,3,5,3,0,5,0,5,0,0,0,0,0,0,0,0,0,0,0,0,0,0,0,0,0,0,0],"split_type":[0,0,0,0,0,0,0,0,0,0,0,0,0,0,0,0,0,0,0,0,0,0,0,0,0,0,0,0,0,0,0,0,0,0,0,0,0,0,0,0,0,0,0],"sum_hessian":[3.93E2,3.39E2,5.4E1,2.48E2,9.1E1,3.7E1,1.7E1,1.92E2,5.6E1,2.1E1,7E1,2.1E1,1.6E1,4E0,1.3E1,1.47E2,4.5E1,4E1,1.6E1,1.3E1,8E0,5.6E1,1.4E1,1.8E1,3E0,6E0,1E1,2.5E1,1.22E2,7E0,3.8E1,2.7E1,1.3E1,9E0,7E0,7E0,6E0,2.9E1,2.7E1,6E0,8E0,8E0,1E1],"tree_param":{"num_deleted":"0","num_feature":"7","num_nodes":"43","size_leaf_vector":"1"}},{"base_weights":[1.9442701E-3,-3.1134566E-2,1.7203315E-1,-4.4930186E-2,5.11275E-2,3.9464304E-1,9.424582E-2,-6.2399354E-2,-1.4175557E-2,1.4139146E-1,-2.097141E-2,2.3004283E-1,6.306362E-1,5.041366E-2,1.4820081E-1,-6.913626E-2,-5.4961327E-2,-4.1737635E-2,4.7420792E-2,9.230426E-2,1.4000482E-2,-3.5884395E-2,-8.475959E-3,3.6082764E-3,1.2855413E-2,4.1088585E-2,1.648128E-2,3.4851465E-2,5.751474E-3,4.580544E-3,8.79892E-3,-2.3442449E-3,-3.5836592E-3,-3.281091E-3,-2.1283568E-3,-2.8526343E-3,-1.118663E-3,1.0141023E-3,4.276248E-3,1.7795627E-3,6.422212E-3,-2.6022193E-3,-1.425767E-4,-1.5283682E-3,3.9178107E-4,1.0671109E-3,2.960109E-3],"categories":[],"categories_nodes":[],"categories_segments":[],"categories_sizes":[],"default_left":[0,0,0,0,0,0,0,0,0,0,0,0,0,0,0,0,0,0,0,0,0,0,0,0,0,0,0,0,0,0,0,0,0,0,0,0,0,0,0,0,0,0,0,0,0,0,0],"id":30,"left_children":[1,3,5,7,9,11,13,15,17,19,21,23,25,27,29,31,33,35,37,39,-1,41,43,-1,-1,-1,-1,45,-1,-1,-1,-1,-1,-1,-1,-1,-1,-1,-1,-1,-1,-1,-1,-1,-1,-1,-1],"loss_changes":[2.1771243E0,3.6999062E-1,1.0537288E0,1.4847308E-1,3.0883804E-1,4.76439E-1,1.06046885E-1,5.069554E-3,1.7514703E-1,1.1704585E-1,4.7271466E-3,2.844882E-2,7.432556E-2,2.4146855E-2,1.6889066E-2,1.663655E-3,8.9660585E-3,1.977975E-2,3.1356566E-2,3.0271813E-2,0E0,6.2573208E-3,6.005046E-3,0E0,0E0,0E0,0E0,6.631529E-3,0E0,0E0,0E0,0E0,0E0,0E0,0E0,0E0,0E0,0E0,0E0,0E0,0E0,0E0,0E0,0E0,0E0,0E0,0E0],"parents":[2147483647,0,0,1,1,2,2,3,3,4,4,5,5,6,6,7,7,8,8,9,9,10,10,11,11,12,12,13,13,14,14,15,15,16,16,17,17,18,18,19,19,21,21,22,22,27,27],"right_children":[2,4,6,8,10,12,14,16,18,20,22,24,26,28,30,32,34,36,38,40,-1,42,44,-1,-1,-1,-1,46,-1,-1,-1,-1,-1,-1,-1,-1,-1,-1,-1,-1,-1,-1,-1,-1,-1,-1,-1],"split_conditions":[9.5E-1,8.5E-1,6.23E0,7.5E-1,6.23E0,6.224E0,6.5E-1,6.5E-1,7.25E-1,8E-1,6.5E-1,9.75E-1,9.75E-1,1.2E0,1.025E0,6.224E0,6.62E-1,5.75E-1,8E-1,8.75E-1,1.4000482E-2,9.25E-1,8.75E-1,3.6082764E-3,1.2855413E-2,4.1088585E-2,1.648128E-2,6.527E0,5.751474E-3,4.580544E-3,8.79892E-3,-2.3442449E-3,-3.5836592E-3,-3.281091E-3,-2.1283568E-3,-2.8526343E-3,-1.118663E-3,1.0141023E-3,4.276248E-3,1.7795627E-3,6.422212E-3,-2.6022193E-3,-1.425767E-4,-1.5283682E-3,3.9178107E-4,1.0671109E-3,2.960109E-3],"split_indices":[3,3,6,0,6,6,0,3,3,0,0,3,3,3,3,6,1,3,0,3,0,3,3,0,0,0,0,6,0,0,0,0,0,0,0,0,0,0,0,0,0,0,0,0,0,0,0],"split_type":[0,0,0,0,0,0,0,0,0,0,0,0,0,0,0,0,0,0,0,0,0,0,0,0,0,0,0,0,0,0,0,0,0,0,0,0,0,0,0,0,0,0,0,0,0,0,0],"sum_hessian":[3.85E2,3.23E2,6.2E1,2.77E2,4.6E1,1.5E1,4.7E1,1.76E2,1.01E2,2E1,2.6E1,1E1,5E0,2.7E1,2E1,8.8E1,8.8E1,7E1,3.1E1,1.6E1,4E0,1.1E1,1.5E1,2E0,8E0,2E0,3E0,2.3E1,4E0,8E0,1.2E1,1.1E1,7.7E1,4.5E1,4.3E1,3.8E1,3.2E1,1.9E1,1.2E1,7E0,9E0,7E0,4E0,6E0,9E0,1.6E1,7E0],"tree_param":{"num_deleted":"0","num_feature":"7","num_nodes":"47","size_leaf_vector":"1"}},{"base_weights":[5.641224E-3,-2.8923795E-2,1.7025042E-1,-5.1567424E-2,1.1578756E-2,1.2626979E-1,6.9915235E-1,-5.7773717E-2,9.660438E-3,-3.549102E-2,1.0307535E-1,8.7001406E-2,2.7363023E-1,5.8850557E-2,1.4271743E-2,-6.515157E-2,-5.111728E-2,-2.1614905E-2,8.623872E-2,-5.066858E-2,-6.5786433E-3,7.8639105E-2,1.2920062E-2,4.4707093E-2,1.3448197E-1,2.154843E-3,3.116275E-1,-2.443004E-3,-3.4521148E-3,-3.0687319E-3,-1.917569E-3,-2.5570109E-3,1.8754402E-4,1.8845246E-3,6.111173E-3,-4.1827015E-4,-2.7542447E-3,-1.0027617E-3,2.3089028E-3,2.3369153E-3,6.574186E-3,1.4887287E-3,5.5214143E-3,4.325256E-3,8.128611E-3,8.15105E-3,1.7348867E-2],"categories":[],"categories_nodes":[],"categories_segments":[],"categories_sizes":[],"default_left":[0,0,0,0,0,0,0,0,0,0,0,0,0,0,0,0,0,0,0,0,0,0,0,0,0,0,0,0,0,0,0,0,0,0,0,0,0,0,0,0,0,0,0,0,0,0,0],"id":31,"left_children":[1,3,5,7,9,11,13,15,17,19,21,23,25,-1,-1,27,29,31,33,35,37,39,-1,41,43,-1,45,-1,-1,-1,-1,-1,-1,-1,-1,-1,-1,-1,-1,-1,-1,-1,-1,-1,-1,-1,-1],"loss_changes":[2.2296045E0,2.977455E-1,1.4934957E0,7.959771E-2,5.07545E-1,3.4653664E-1,6.525328E-1,5.951464E-3,4.9764283E-2,3.389456E-2,1.3150287E-1,9.841189E-2,1.0044503E-1,0E0,0E0,2.077788E-3,1.1264414E-2,1.1425813E-2,5.875308E-3,9.067237E-3,2.083356E-2,5.454296E-2,0E0,2.5172152E-2,1.8281013E-2,0E0,1.2207031E-3,0E0,0E0,0E0,0E0,0E0,0E0,0E0,0E0,0E0,0E0,0E0,0E0,0E0,0E0,0E0,0E0,0E0,0E0,0E0,0E0],"parents":[2147483647,0,0,1,1,2,2,3,3,4,4,5,5,6,6,7,7,8,8,9,9,10,10,11,11,12,12,15,15,16,16,17,17,18,18,19,19,20,20,21,21,23,23,24,24,26,26],"right_children":[2,4,6,8,10,12,14,16,18,20,22,24,26,-1,-1,28,30,32,34,36,38,40,-1,42,44,-1,46,-1,-1,-1,-1,-1,-1,-1,-1,-1,-1,-1,-1,-1,-1,-1,-1,-1,-1,-1,-1],"split_conditions":[2.39E0,7.5E-1,2.5E0,2.255E0,1.783E0,7.1E-1,2.444E0,1.597E0,4.8E-1,1.5E0,3.51E0,6.5E-1,2.444E0,5.8850557E-2,1.4271743E-2,-1.54E0,6.62E-1,6.5E-1,1.45E0,6.02E0,3.51E0,2.041E0,1.2920062E-2,3.093E0,2.642E0,2.154843E-3,2.576E0,-2.443004E-3,-3.4521148E-3,-3.0687319E-3,-1.917569E-3,-2.5570109E-3,1.8754402E-4,1.8845246E-3,6.111173E-3,-4.1827015E-4,-2.7542447E-3,-1.0027617E-3,2.3089028E-3,2.3369153E-3,6.574186E-3,1.4887287E-3,5.5214143E-3,4.325256E-3,8.128611E-3,8.15105E-3,1.7348867E-2],"split_indices":[4,0,5,4,4,1,4,4,5,4,5,0,4,0,0,5,1,0,5,6,5,4,0,4,4,0,4,0,0,0,0,0,0,0,0,0,0,0,0,0,0,0,0,0,0,0,0],"split_type":[0,0,0,0,0,0,0,0,0,0,0,0,0,0,0,0,0,0,0,0,0,0,0,0,0,0,0,0,0,0,0,0,0,0,0,0,0,0,0,0,0,0,0,0,0,0,0],"sum_hessian":[3.9E2,3.23E2,6.7E1,2.07E2,1.16E2,6.3E1,4E0,1.88E2,1.9E1,7.7E1,3.9E1,5.1E1,1.2E1,1E0,3E0,8.5E1,1.03E2,1.4E1,5E0,5E1,2.7E1,3.5E1,4E0,2.8E1,2.3E1,2E0,1E1,1.9E1,6.6E1,5.5E1,4.8E1,6E0,8E0,3E0,2E0,5E0,4.5E1,2.2E1,5E0,2.3E1,1.2E1,2.4E1,4E0,1E1,1.3E1,3E0,7E0],"tree_param":{"num_deleted":"0","num_feature":"7","num_nodes":"47","size_leaf_vector":"1"}},{"base_weights":[1.0190257E-2,-3.369082E-2,1.4396834E-1,-4.9965687E-2,9.26504E-3,9.4101585E-2,4.3644732E-1,-5.3829264E-2,-1.1342349E-2,-3.349945E-2,1.0981864E-1,5.28234E-2,1.7624564E-1,8.237962E-3,5.2864665E-1,-2.9412722E-3,-4.0841423E-2,-2.868167E-2,3.678623E-2,-4.1922577E-2,1.1966121E-2,5.8048304E-2,1.4634903E-1,1.9451613E-2,8.126167E-2,8.743299E-2,2.3739058E-1,2.6978996E-1,6.562528E-1,-2.4933107E-3,-1.0600504E-3,-1.9615877E-3,-2.2797834E-4,9.7369775E-4,2.3803592E-3,-4.327768E-4,-2.4506995E-3,-1.3672367E-3,9.686149E-4,1.4733976E-3,3.4327493E-3,4.422262E-3,8.936061E-3,-5.187744E-4,1.7063158E-3,2.4019198E-3,5.470305E-3,2.109009E-3,4.839541E-3,5.9718164E-3,1.2771169E-2,6.740183E-4,1.6524864E-2,5.7379294E-2,1.6423449E-2],"categories":[],"categories_nodes":[],"categories_segments":[],"categories_sizes":[],"default_left":[0,0,0,0,0,0,0,0,0,0,0,0,0,0,0,0,0,0,0,0,0,0,0,0,0,0,0,0,0,0,0,0,0,0,0,0,0,0,0,0,0,0,0,0,0,0,0,0,0,0,0,0,0,0,0],"id":32,"left_children":[1,3,5,7,9,11,13,15,17,19,21,23,25,-1,27,-1,29,31,33,35,37,39,41,43,45,47,49,51,53,-1,-1,-1,-1,-1,-1,-1,-1,-1,-1,-1,-1,-1,-1,-1,-1,-1,-1,-1,-1,-1,-1,-1,-1,-1,-1],"loss_changes":[2.3294997E0,2.0949405E-1,1.3882573E0,3.1771123E-2,3.6058912E-1,2.7890456E-1,2.635932E-1,1.0380745E-2,1.8579943E-2,2.309642E-2,3.8784444E-2,5.3463414E-2,1.3129658E-1,0E0,1.5326667E-1,0E0,9.22332E-3,3.8929638E-3,1.969114E-4,1.137127E-2,3.4411615E-3,1.6145892E-3,1.0435551E-2,1.2609786E-2,2.373086E-2,1.4224276E-3,3.5258532E-3,7.334408E-2,5.8935976E-1,0E0,0E0,0E0,0E0,0E0,0E0,0E0,0E0,0E0,0E0,0E0,0E0,0E0,0E0,0E0,0E0,0E0,0E0,0E0,0E0,0E0,0E0,0E0,0E0,0E0,0E0],"parents":[2147483647,0,0,1,1,2,2,3,3,4,4,5,5,6,6,7,7,8,8,9,9,10,10,11,11,12,12,14,14,16,16,17,17,18,18,19,19,20,20,21,21,22,22,23,23,24,24,25,25,26,26,27,27,28,28],"right_children":[2,4,6,8,10,12,14,16,18,20,22,24,26,-1,28,-1,30,32,34,36,38,40,42,44,46,48,50,52,54,-1,-1,-1,-1,-1,-1,-1,-1,-1,-1,-1,-1,-1,-1,-1,-1,-1,-1,-1,-1,-1,-1,-1,-1,-1,-1],"split_conditions":[9E-1,8.3E-1,1.54E0,8.5E-1,7.5E-1,7.5E-1,9.25E-1,7.88E-1,7.6E-1,7E-1,8E-1,1.05E0,2.576E0,8.237962E-3,7.95E-1,-2.9412722E-3,1.74E0,-5E-1,7.95E-1,1.37E0,8.34E-1,8E-1,8E-1,7.12E-1,7.15E-1,7E-1,7.54E-1,9.75E-1,9.75E-1,-2.4933107E-3,-1.0600504E-3,-1.9615877E-3,-2.2797834E-4,9.7369775E-4,2.3803592E-3,-4.327768E-4,-2.4506995E-3,-1.3672367E-3,9.686149E-4,1.4733976E-3,3.4327493E-3,4.422262E-3,8.936061E-3,-5.187744E-4,1.7063158E-3,2.4019198E-3,5.470305E-3,2.109009E-3,4.839541E-3,5.9718164E-3,1.2771169E-2,6.740183E-4,1.6524864E-2,5.7379294E-2,1.6423449E-2],"split_indices":[3,2,5,3,3,2,3,2,5,3,0,3,4,0,2,0,4,5,2,5,2,3,3,2,2,0,2,3,3,0,0,0,0,0,0,0,0,0,0,0,0,0,0,0,0,0,0,0,0,0,0,0,0,0,0],"split_type":[0,0,0,0,0,0,0,0,0,0,0,0,0,0,0,0,0,0,0,0,0,0,0,0,0,0,0,0,0,0,0,0,0,0,0,0,0,0,0,0,0,0,0,0,0,0,0,0,0,0,0,0,0,0,0],"sum_hessian":[3.95E2,2.98E2,9.7E1,2.16E2,8.2E1,8.4E1,1.3E1,1.96E2,2E1,5.8E1,2.4E1,5.7E1,2.7E1,4E0,9E0,1.39E2,5.7E1,1.5E1,5E0,4.9E1,9E0,1.1E1,1.3E1,2.7E1,3E1,1.2E1,1.5E1,4E0,5E0,3.8E1,1.9E1,1E1,5E0,3E0,2E0,9E0,4E1,1E0,8E0,4E0,7E0,6E0,7E0,9E0,1.8E1,1.5E1,1.5E1,3E0,9E0,3E0,1.2E1,1E0,3E0,1E0,4E0],"tree_param":{"num_deleted":"0","num_feature":"7","num_nodes":"55","size_leaf_vector":"1"}},{"base_weights":[1.0066403E-2,-2.7763026E-3,7.1597785E-2,-2.0326613E-2,1.0522973E-2,7.873341E-3,3.0840226E-2,-2.6524106E-2,-2.5842403E-4,1.7677214E-2,-8.10038E-4,1.2769805E-2,3.561596E-3,-1.4956535E-3,-1.966614E-2,3.1695828E-2,3.8403566E-3,-1.4180437E-3,5.85413E-3,7.687981E-4,4.5198837E-4,-4.893122E-4,-1.3735493E-3,7.3702383E-4,2.0117515E-3,-1.9652134E-5,5.5581646E-4,9.3047175E-4,4.8591373E-5],"categories":[],"categories_nodes":[],"categories_segments":[],"categories_sizes":[],"default_left":[0,0,0,0,0,0,0,0,0,0,0,0,0,0,0,0,0,0,0,0,0,0,0,0,0,0,0,0,0],"id":33,"left_children":[1,3,5,7,9,-1,11,13,-1,15,17,19,-1,-1,21,23,25,-1,27,-1,-1,-1,-1,-1,-1,-1,-1,-1,-1],"loss_changes":[3.0206645E-1,7.420373E-2,2.2613129E-1,1.2733024E-2,1.46896355E-2,0E0,3.2665536E-2,1.6661435E-3,0E0,2.1409344E-2,1.3201869E-2,1.8180022E-4,0E0,0E0,2.4300497E-3,7.3700994E-3,1.7600884E-3,0E0,3.5938795E-3,0E0,0E0,0E0,0E0,0E0,0E0,0E0,0E0,0E0,0E0],"parents":[2147483647,0,0,1,1,2,2,3,3,4,4,6,6,7,7,9,9,10,10,11,11,14,14,15,15,16,16,18,18],"right_children":[2,4,6,8,10,-1,12,14,-1,16,18,20,-1,-1,22,24,26,-1,28,-1,-1,-1,-1,-1,-1,-1,-1,-1,-1],"split_conditions":[2.55E0,7.5E-1,7.5E-1,-5E-1,7.5E-1,7.873341E-3,8E-1,6.5E-1,-2.5842403E-4,6.23E0,8.28E-1,7.58E-1,3.561596E-3,-1.4956535E-3,6.62E-1,7.1E-1,4.8E-1,-1.4180437E-3,6.02E0,7.687981E-4,4.5198837E-4,-4.893122E-4,-1.3735493E-3,7.3702383E-4,2.0117515E-3,-1.9652134E-5,5.5581646E-4,9.3047175E-4,4.8591373E-5],"split_indices":[5,2,0,5,0,0,0,0,0,6,2,1,0,0,1,1,5,0,6,0,0,0,0,0,0,0,0,0,0],"split_type":[0,0,0,0,0,0,0,0,0,0,0,0,0,0,0,0,0,0,0,0,0,0,0,0,0,0,0,0,0],"sum_hessian":[3.81E2,3.16E2,6.5E1,1.36E2,1.8E2,2E1,4.5E1,9.6E1,4E1,1.1E2,7E1,3.2E1,1.3E1,6.2E1,3.4E1,5.4E1,5.6E1,1.3E1,5.7E1,1.7E1,1.5E1,1.6E1,1.8E1,1.9E1,3.5E1,3.6E1,2E1,1.5E1,4.2E1],"tree_param":{"num_deleted":"0","num_feature":"7","num_nodes":"29","size_leaf_vector":"1"}},{"base_weights":[6.847676E-3,-2.673776E-2,1.7046969E-1,-3.8610276E-2,3.936546E-2,1.0565595E-1,6.109588E-1,-5.2533574E-2,-1.4347787E-2,-1.9948801E-2,1.3933083E-1,4.0638454E-2,1.5887584E-1,5.5747982E-2,1.8983938E-2,-2.8688107E-3,-4.4753898E-2,-3.925429E-2,3.59E-2,-3.2538626E-2,-1.3764088E-5,8.8348925E-2,1.27107E-2,2.909582E-2,4.986733E-3,7.275763E-2,1.8096209E-1,-2.47987E-3,-1.712272E-3,-2.6308119E-3,-1.2148956E-3,3.4959216E-4,3.3088964E-3,-2.1424794E-3,-9.4869017E-4,-1.1193932E-3,6.20891E-4,1.9313047E-3,5.5840467E-3,6.634508E-4,2.3296976E-3,4.5671166E-4,4.02709E-3,6.490515E-3,1.1480662E-2],"categories":[],"categories_nodes":[],"categories_segments":[],"categories_sizes":[],"default_left":[0,0,0,0,0,0,0,0,0,0,0,0,0,0,0,0,0,0,0,0,0,0,0,0,0,0,0,0,0,0,0,0,0,0,0,0,0,0,0,0,0,0,0,0,0],"id":34,"left_children":[1,3,5,7,9,11,13,15,17,19,21,23,25,-1,-1,-1,27,29,31,33,35,37,-1,39,-1,41,43,-1,-1,-1,-1,-1,-1,-1,-1,-1,-1,-1,-1,-1,-1,-1,-1,-1,-1],"loss_changes":[2.0653017E0,2.4638112E-1,1.762632E0,8.876696E-2,2.8738934E-1,1.9077629E-1,5.0919604E-1,3.7614405E-3,1.240559E-1,7.7798907E-3,8.296579E-2,1.55155435E-2,4.5796514E-2,0E0,0E0,0E0,1.8134713E-3,1.1911392E-2,2.8421499E-2,1.8444397E-3,3.8938995E-3,1.19280815E-2,0E0,6.028291E-3,0E0,3.2263547E-3,2.9920042E-2,0E0,0E0,0E0,0E0,0E0,0E0,0E0,0E0,0E0,0E0,0E0,0E0,0E0,0E0,0E0,0E0,0E0,0E0],"parents":[2147483647,0,0,1,1,2,2,3,3,4,4,5,5,6,6,7,7,8,8,9,9,10,10,11,11,12,12,16,16,17,17,18,18,19,19,20,20,21,21,23,23,25,25,26,26],"right_children":[2,4,6,8,10,12,14,16,18,20,22,24,26,-1,-1,-1,28,30,32,34,36,38,-1,40,-1,42,44,-1,-1,-1,-1,-1,-1,-1,-1,-1,-1,-1,-1,-1,-1,-1,-1,-1,-1],"split_conditions":[9.5E-1,8.5E-1,1.45E0,7.5E-1,7.6E-1,6.5E-1,9.75E-1,6.64E-1,7E-1,-5E-1,8E-1,1.2E0,9.75E-1,5.5747982E-2,1.8983938E-2,-2.8688107E-3,1.782E0,5.5E-1,1.54E0,6.5E-1,8.75E-1,8.75E-1,1.27107E-2,-5.5E-1,4.986733E-3,-2.05E0,7E-1,-2.47987E-3,-1.712272E-3,-2.6308119E-3,-1.2148956E-3,3.4959216E-4,3.3088964E-3,-2.1424794E-3,-9.4869017E-4,-1.1193932E-3,6.20891E-4,1.9313047E-3,5.5840467E-3,6.634508E-4,2.3296976E-3,4.5671166E-4,4.02709E-3,6.490515E-3,1.1480662E-2],"split_indices":[3,3,5,0,5,0,3,1,3,5,0,3,3,0,0,0,4,3,5,0,3,3,0,5,0,5,0,0,0,0,0,0,0,0,0,0,0,0,0,0,0,0,0,0,0],"split_type":[0,0,0,0,0,0,0,0,0,0,0,0,0,0,0,0,0,0,0,0,0,0,0,0,0,0,0,0,0,0,0,0,0,0,0,0,0,0,0,0,0,0,0,0,0],"sum_hessian":[3.74E2,3.11E2,6.3E1,2.64E2,4.7E1,5.6E1,7E0,1.67E2,9.7E1,3E1,1.7E1,2.6E1,3E1,1E0,6E0,9.9E1,6.8E1,6.5E1,3.2E1,1.8E1,1.2E1,1.3E1,4E0,2.3E1,3E0,7E0,2.3E1,4.4E1,2.4E1,3.3E1,3.2E1,1.7E1,1.5E1,9E0,9E0,4E0,8E0,5E0,8E0,1.3E1,1E1,1E0,6E0,1.3E1,1E1],"tree_param":{"num_deleted":"0","num_feature":"7","num_nodes":"45","size_leaf_vector":"1"}},{"base_weights":[7.5602503E-3,-2.4892043E-2,1.507862E-1,-4.126229E-2,2.7777195E-2,1.122921E-1,7.771129E-1,-2.9018247E-3,-4.7919657E-2,-1.07658515E-2,1.6217753E-1,5.8179967E-2,1.9431172E-1,5.435428E-2,1.557134E-2,-2.671039E-2,3.3798095E-2,-5.566973E-2,-3.7626963E-2,-3.5923894E-2,3.126769E-2,1.3116391E-1,1.3159322E-2,3.4262132E-2,8.65887E-2,6.780153E-2,2.2722885E-1,-3.9605034E-4,-1.8101663E-3,4.3758466E-3,3.1539446E-4,-1.9627067E-3,-2.954704E-3,-2.2105793E-3,2.8940898E-4,-2.5503577E-3,-9.078023E-4,5.6702964E-5,3.5164002E-3,3.404696E-3,7.3954053E-3,1.022545E-3,3.7294608E-3,1.9564917E-3,5.2741407E-3,4.2173644E-3,-7.86826E-4,5.505219E-3,1.2031635E-2],"categories":[],"categories_nodes":[],"categories_segments":[],"categories_sizes":[],"default_left":[0,0,0,0,0,0,0,0,0,0,0,0,0,0,0,0,0,0,0,0,0,0,0,0,0,0,0,0,0,0,0,0,0,0,0,0,0,0,0,0,0,0,0,0,0,0,0,0,0],"id":35,"left_children":[1,3,5,7,9,11,13,15,17,19,21,23,25,-1,-1,27,29,31,33,35,37,39,-1,41,43,45,47,-1,-1,-1,-1,-1,-1,-1,-1,-1,-1,-1,-1,-1,-1,-1,-1,-1,-1,-1,-1,-1,-1],"loss_changes":[1.8118296E0,2.7532846E-1,1.648648E0,6.19182E-2,3.9544106E-1,2.9493475E-1,2.3885202E-1,3.323234E-2,1.4417499E-2,6.457215E-2,1.8734485E-2,2.6250735E-2,9.703112E-2,0E0,0E0,3.8156603E-3,2.1599079E-2,4.201025E-3,2.6556179E-2,9.257805E-3,2.6991911E-2,5.769193E-3,0E0,1.239875E-2,1.2909636E-2,1.1002738E-2,6.4735413E-3,0E0,0E0,0E0,0E0,0E0,0E0,0E0,0E0,0E0,0E0,0E0,0E0,0E0,0E0,0E0,0E0,0E0,0E0,0E0,0E0,0E0,0E0],"parents":[2147483647,0,0,1,1,2,2,3,3,4,4,5,5,6,6,7,7,8,8,9,9,10,10,11,11,12,12,15,15,16,16,17,17,18,18,19,19,20,20,21,21,23,23,24,24,25,25,26,26],"right_children":[2,4,6,8,10,12,14,16,18,20,22,24,26,-1,-1,28,30,32,34,36,38,40,-1,42,44,46,48,-1,-1,-1,-1,-1,-1,-1,-1,-1,-1,-1,-1,-1,-1,-1,-1,-1,-1,-1,-1,-1,-1],"split_conditions":[9.5E-1,8E-1,7.95E-1,6.028E0,8.3E-1,7.5E-1,9.75E-1,6.75E-1,6.5E-1,7.54E-1,3.51E0,7.15E-1,9.75E-1,5.435428E-2,1.557134E-2,1.37E0,8.69E-1,-1.54E0,8.3E-1,8.75E-1,8.75E-1,8.25E-1,1.3159322E-2,1.15E0,1.05E0,7.9E-1,7.54E-1,-3.9605034E-4,-1.8101663E-3,4.3758466E-3,3.1539446E-4,-1.9627067E-3,-2.954704E-3,-2.2105793E-3,2.8940898E-4,-2.5503577E-3,-9.078023E-4,5.6702964E-5,3.5164002E-3,3.404696E-3,7.3954053E-3,1.022545E-3,3.7294608E-3,1.9564917E-3,5.2741407E-3,4.2173644E-3,-7.86826E-4,5.505219E-3,1.2031635E-2],"split_indices":[3,3,2,6,2,2,3,3,3,2,5,2,3,0,0,5,2,5,2,3,3,3,0,3,3,2,2,0,0,0,0,0,0,0,0,0,0,0,0,0,0,0,0,0,0,0,0,0,0],"split_type":[0,0,0,0,0,0,0,0,0,0,0,0,0,0,0,0,0,0,0,0,0,0,0,0,0,0,0,0,0,0,0,0,0,0,0,0,0,0,0,0,0,0,0,0,0,0,0,0,0],"sum_hessian":[3.88E2,3.17E2,7.1E1,2.42E2,7.5E1,6.8E1,3E0,3.6E1,2.06E2,5.9E1,1.6E1,4.2E1,2.6E1,1E0,2E0,2.2E1,1.4E1,1.15E2,9.1E1,3.7E1,2.2E1,1.4E1,2E0,2.4E1,1.8E1,6E0,2E1,8E0,1.4E1,4E0,1E1,2.2E1,9.3E1,7.9E1,1.2E1,1.9E1,1.8E1,1.3E1,9E0,4E0,1E1,1.9E1,5E0,6E0,1.2E1,5E0,1E0,3E0,1.7E1],"tree_param":{"num_deleted":"0","num_feature":"7","num_nodes":"49","size_leaf_vector":"1"}},{"base_weights":[3.988979E-3,-2.6234286E-2,1.4234497E-1,-4.4775747E-2,7.4709565E-3,1.03012845E-1,7.557387E-1,-4.94193E-2,-2.624014E-2,-3.2943714E-2,6.92741E-2,4.970942E-2,1.8844208E-1,5.2995425E-2,1.5052295E-2,-2.7708309E-3,-4.2079188E-2,-2.1626328E-3,-2.0872553E-4,-4.5495555E-2,-7.5133666E-3,3.6932524E-2,1.04477204E-1,1.8084813E-2,6.847514E-2,5.3035896E-2,2.1964183E-1,-2.1661925E-3,1.5318194E-4,1.862818E-3,-6.7871023E-4,-2.6172337E-3,-1.5366332E-3,-1.0417317E-3,1.0866746E-3,7.931119E-4,5.9020617E-3,3.0582142E-3,6.9146096E-3,6.0303695E-4,2.86175E-3,2.0045254E-3,4.4970615E-3,3.4890163E-3,-7.671565E-4,7.5860145E-3,1.2613976E-2],"categories":[],"categories_nodes":[],"categories_segments":[],"categories_sizes":[],"default_left":[0,0,0,0,0,0,0,0,0,0,0,0,0,0,0,0,0,0,0,0,0,0,0,0,0,0,0,0,0,0,0,0,0,0,0,0,0,0,0,0,0,0,0,0,0,0,0],"id":36,"left_children":[1,3,5,7,9,11,13,15,17,19,21,23,25,-1,-1,-1,27,-1,29,31,33,35,37,39,41,43,45,-1,-1,-1,-1,-1,-1,-1,-1,-1,-1,-1,-1,-1,-1,-1,-1,-1,-1,-1,-1],"loss_changes":[1.6094571E0,1.97817E-1,1.5868483E0,1.6261756E-2,2.845283E-1,2.9117495E-1,2.341342E-1,4.799485E-3,1.9033946E-2,2.1682814E-2,4.7374964E-2,2.3686908E-2,9.396714E-2,0E0,0E0,0E0,4.4591576E-3,0E0,9.519024E-3,3.0424967E-3,9.803333E-3,4.0852197E-2,2.229859E-2,3.3190455E-3,1.2236185E-2,7.940454E-3,6.0601234E-3,0E0,0E0,0E0,0E0,0E0,0E0,0E0,0E0,0E0,0E0,0E0,0E0,0E0,0E0,0E0,0E0,0E0,0E0,0E0,0E0],"parents":[2147483647,0,0,1,1,2,2,3,3,4,4,5,5,6,6,7,7,8,8,9,9,10,10,11,11,12,12,16,16,18,18,19,19,20,20,21,21,22,22,23,23,24,24,25,25,26,26],"right_children":[2,4,6,8,10,12,14,16,18,20,22,24,26,-1,-1,-1,28,-1,30,32,34,36,38,40,42,44,46,-1,-1,-1,-1,-1,-1,-1,-1,-1,-1,-1,-1,-1,-1,-1,-1,-1,-1,-1,-1],"split_conditions":[9.5E-1,7.5E-1,7.95E-1,8E-1,7.9E-1,7.5E-1,9.75E-1,5.75E-1,6E-1,8.75E-1,8.34E-1,7.12E-1,9.75E-1,5.2995425E-2,1.5052295E-2,-2.7708309E-3,8.34E-1,-2.1626328E-3,8.69E-1,7.5E-1,7.5E-1,9E-1,8E-1,1.2E0,1.05E0,7.9E-1,7.1E-1,-2.1661925E-3,1.5318194E-4,1.862818E-3,-6.7871023E-4,-2.6172337E-3,-1.5366332E-3,-1.0417317E-3,1.0866746E-3,7.931119E-4,5.9020617E-3,3.0582142E-3,6.9146096E-3,6.0303695E-4,2.86175E-3,2.0045254E-3,4.4970615E-3,3.4890163E-3,-7.671565E-4,7.5860145E-3,1.2613976E-2],"split_indices":[3,3,2,0,2,2,3,3,3,3,2,2,3,0,0,0,2,0,2,2,2,3,3,3,3,2,1,0,0,0,0,0,0,0,0,0,0,0,0,0,0,0,0,0,0,0,0],"split_type":[0,0,0,0,0,0,0,0,0,0,0,0,0,0,0,0,0,0,0,0,0,0,0,0,0,0,0,0,0,0,0,0,0,0,0,0,0,0,0,0,0,0,0,0,0,0,0],"sum_hessian":[3.83E2,3.15E2,6.8E1,2.03E2,1.12E2,6.5E1,3E0,1.61E2,4.2E1,6.8E1,4.4E1,4.1E1,2.4E1,1E0,2E0,8.5E1,7.6E1,2.5E1,1.7E1,4.5E1,2.3E1,2.4E1,2E1,1.6E1,2.5E1,5E0,1.9E1,7.4E1,2E0,4E0,1.3E1,2.9E1,1.6E1,1.6E1,7E0,2E1,4E0,1E1,1E1,1.5E1,1E0,1.2E1,1.3E1,4E0,1E0,8E0,1.1E1],"tree_param":{"num_deleted":"0","num_feature":"7","num_nodes":"47",